9996 16
. -0.15661262 -0.19765772 -0.13781978 -0.24980985 -0.15644196 -0.12219123 -0.049649287 -0.15793546 0.3211396 -0.1352674 -0.15436207 -0.122262396 -0.17452171 -0.22870271 -0.1600647 -0.086924754
영화 -0.16698821 -0.20316795 -0.15528834 -0.19578177 -0.16207258 -0.12701513 0.27615958 -0.16208734 -0.009875584 -0.14810325 -0.10638242 -0.13507494 -0.17317894 -0.1659381 -0.1779327 -0.1517622
다 -0.15418467 -0.19290987 -0.16391532 -0.24683899 -0.14127664 -0.13631578 0.5488534 -0.16227564 -0.003513109 -0.14319283 -0.09152627 -0.08843932 -0.1766236 -0.18566623 -0.17464176 -0.13389345
고 -0.13174382 -0.1390266 -0.13952376 -0.19389947 -0.15646105 -0.12449075 0.42253855 -0.12720555 0.011125314 -0.11503882 -0.10703037 -0.16115388 -0.13203208 -0.14248012 -0.16804731 -0.10208378
하 -0.1533778 -0.17001745 -0.13621221 -0.21943998 -0.1594124 -0.09491012 0.00027169177 -0.15303685 -0.040863205 -0.14347881 -0.033017397 -0.12070051 -0.16458303 -0.15908265 -0.1471341 -0.13978228
을 -0.11013689 -0.16445144 -0.13391925 -0.14751078 -0.15763444 -0.1207675 0.33396798 -0.14904222 -0.014341522 -0.106085375 -0.08949747 -0.13331412 -0.1124069 -0.1630716 -0.15182012 -0.12625372
보 -0.09070948 -0.14733985 -0.14069232 -0.19362895 -0.14624035 -0.12565687 0.0008674999 -0.15612139 0.013728282 -0.06290544 -0.15040407 -0.13312586 -0.15491524 -0.15366948 -0.1803661 -0.12400325
.. -0.15410686 -0.11225599 0.026180334 -0.2014763 -0.06326083 -0.13606909 0.11871515 -0.1550755 -0.023295535 -0.105935484 -0.1511478 -0.05592193 -0.12901615 -0.14076811 -0.13758248 -0.023575513
게 -0.14469385 -0.09520158 -0.13903157 -0.0463824 -0.16736205 -0.10103944 -0.041437637 -0.16466059 -0.041397788 -0.13863754 -0.08772333 -0.10914571 -0.115504116 -0.09903359 -0.15799277 -0.13887003
, -0.12748511 -0.13188985 -0.13214429 -0.17781207 -0.15347518 -0.097423926 0.008577635 -0.083423816 -0.022902906 -0.14569494 -0.12899806 -0.10139991 -0.13215618 -0.13041832 -0.109410815 -0.11219331
! -0.1266692 0.2497629 -0.15138887 -0.19098103 -0.1594779 -0.12727048 0.28664473 -0.10083745 0.043659177 -0.14584807 -0.014640037 -0.11107121 -0.0028751278 -0.11097908 -0.17706601 -0.1351687
지 -0.051313844 -0.13571765 -0.14192204 -0.19277982 -0.12406588 -0.101052724 0.057114385 -0.15800014 -0.040226497 -0.07119317 0.040093742 -0.15553463 -0.098499745 -0.16855177 -0.17534049 -0.13184354
있 -0.14917639 0.045030244 -0.09838404 -0.1342774 -0.09580907 -0.116533354 0.01741949 -0.074917786 -0.001225112 -0.090570696 -0.124513604 -0.157141 0.11842753 -0.02129615 -0.12870817 -0.13530348
없 -0.14666778 -0.16554286 0.09357692 -0.17835766 -0.07225257 -0.14735292 -0.043468643 -0.099707544 0.0027236273 -0.1460444 -0.03159903 -0.031727407 -0.15466686 -0.13720745 0.048428956 0.24508826
? -0.089943565 -0.17303091 0.14079265 -0.19893527 -0.15832587 -0.03631347 0.17702056 -0.14903982 -0.014334835 -0.090811186 0.09042767 0.03513432 -0.12290938 -0.14953858 -0.12870514 -0.11645668
좋 -0.107597254 -0.08002346 -0.15095614 0.11621149 -0.15032597 -0.13076948 0.06493702 -0.1637533 -0.022702634 -0.07356264 -0.09415927 -0.13611095 -0.10886538 0.18014848 -0.16464801 -0.13554807
나 -0.084947184 -0.18865684 -0.12870169 -0.23873636 -0.16101609 -0.08126597 -0.033020888 -0.12903062 0.47262487 -0.0928732 -0.06951822 -0.16137299 -0.10979539 -0.16917694 -0.16383748 0.001263069
었 0.07317604 -0.15009344 -0.14507687 -0.105523534 -0.15900059 -0.10652364 0.036496762 -0.16407514 0.019890724 -0.12582433 -0.122937776 -0.042491984 -0.06147386 -0.15245657 -0.1794959 -0.08330359
만 -0.12192176 -0.06528669 0.12788561 -0.05726984 -0.16494744 0.00115367 0.07715018 -0.16144185 0.5165664 -0.0638723 -0.14640205 0.02611884 -0.15426983 -0.13664038 -0.17275329 -0.12230157
는데 -0.07672194 -0.08439954 -0.067842 -0.067203514 -0.11266847 -0.12032074 0.055775963 -0.1544734 -0.04045075 -0.08055114 -0.12283443 -0.16108145 -0.08924496 -0.114464045 -0.1427674 -0.13000804
너무 -0.14904338 -0.1979816 -0.15159473 -0.20133431 -0.14459577 -0.11922135 -0.006841159 -0.114770964 0.012776052 -0.15283449 -0.12602618 -0.15552038 -0.18395407 -0.16694473 -0.17043914 -0.106893405
봤 0.10535687 -0.148819 -0.16680527 -0.14443833 -0.10967855 -0.15451728 -0.04431517 -0.10639996 -0.0259184 -0.13672246 -0.08879271 -0.15152605 -0.123075984 -0.16533306 -0.12302935 0.028474577
적 -0.13106173 -0.14431822 -0.15747674 -0.1583032 -0.06437755 -0.12306678 0.033738136 -0.07416472 -0.006144263 -0.13951424 -0.14807813 -0.14023036 -0.14281298 -0.15935019 -0.13059606 -0.13243762
안 -0.13269219 -0.17175831 0.09815932 -0.11909885 -0.04447663 -0.08883677 -0.040774595 -0.03454753 -0.02029786 -0.14927332 0.17685243 -0.0295548 -0.122492485 -0.078475595 -0.053337142 0.02202498
정말 -0.12433052 -0.19934167 -0.15050796 -0.14099611 -0.15674347 -0.12681513 -0.03839894 -0.13664603 0.021327725 -0.13865611 -0.11665187 -0.14404264 -0.17677937 -0.14870296 -0.16734797 -0.15538625
로 -0.15883857 -0.13635458 -0.057121888 -0.14018875 -0.033499442 -0.10577685 -0.0032253768 -0.031343397 0.015828552 -0.14472024 -0.07401107 -0.006671568 -0.1660688 -0.15807621 -0.0509969 -0.13074967
음 -0.12239627 -0.13429521 -0.15190971 -0.13012777 -0.13759005 -0.12926272 0.6276253 -0.16697684 0.009239517 -0.14812665 -0.08074903 -0.16596158 -0.16127792 -0.12686504 -0.16990934 -0.10429068
것 -0.107875735 -0.12731323 -0.10864077 -0.16697817 -0.08355582 -0.09907498 0.017067922 -0.11152501 -0.0039981604 -0.11405913 -0.08202833 -0.14384723 -0.1354193 -0.1429655 -0.15857275 -0.07926105
아 -0.13544056 -0.2087162 -0.15161917 -0.1340638 -0.1659926 -0.13704963 -0.032586917 -0.15088733 -0.014945079 -0.14738674 -0.102965534 -0.15874507 -0.10939566 -0.17216425 -0.14132905 -0.13108768
네요 -0.15374225 0.11047085 -0.13528745 -0.18323074 -0.15441427 -0.08564217 0.515824 -0.16950266 0.0054002292 -0.13460271 -0.14557377 -0.0372777 -0.1753301 -0.14998491 -0.028439362 -0.1411671
재밌 -0.14263213 -0.047200236 -0.080247656 -0.09854149 0.026206458 -0.13087612 0.106605336 -0.15811889 -0.0045533585 0.17521468 -0.073336504 -0.18192957 -0.07110625 0.30061242 -0.17026436 -0.14299193
어 -0.15222679 -0.14691375 -0.063443966 -0.17644118 -0.16900782 -0.06535221 -0.041089427 -0.041671317 -0.028522884 -0.144693 -0.08583904 -0.16514845 -0.15407796 -0.15402043 -0.16702262 -0.154939
같 -0.13103612 -0.1738847 -0.08022914 -0.17859621 -0.04727485 -0.12753345 0.01707624 -0.081262074 0.005666148 -0.13729091 -0.102392234 -0.040891606 -0.16175796 -0.15281397 -0.1464212 -0.08967118
점 -0.10609502 -0.1621702 0.0392571 -0.18036915 0.053990785 -0.12689587 0.02431083 -0.15933236 -0.008716285 -0.11021294 0.1756377 -0.17370902 -0.09512263 -0.13430984 -0.16060773 0.0015580239
지만 0.19437014 -0.13978429 -0.14299172 -0.048284892 -0.0926835 -0.121579215 -0.0036695062 -0.014002698 0.014165614 -0.14006427 0.020328488 -0.0025673842 -0.10221296 -0.010415752 0.029376658 0.019018946
진짜 -0.13031633 -0.16638973 -0.09895774 -0.1807538 -0.14026736 -0.101091675 -0.046967685 -0.1731124 0.021592844 -0.112238206 -0.16006638 -0.14819394 -0.021573402 -0.14410707 -0.16990887 -0.101889804
했 -0.13267227 -0.17314206 -0.010425771 -0.17529637 -0.12022106 -0.010938894 0.05824468 -0.15086877 -0.010218155 -0.13982005 -0.09404231 -0.08947073 -0.14929906 -0.17573318 -0.15255852 -0.13204503
에서 -0.1093179 -0.15227525 -0.11136895 -0.13332567 -0.1072197 -0.14150646 0.036851503 -0.116970696 -0.047703873 -0.15169528 -0.09589461 -0.11997563 -0.14912383 -0.13295701 -0.07600599 -0.070703045
기 -0.09748335 -0.09691927 -0.043192208 -0.11994279 -0.08323355 -0.078552336 0.0120663075 -0.034085475 0.0010278113 -0.10121502 -0.13476825 -0.09163047 -0.1270157 -0.09250768 -0.17407914 0.135614
네 -0.075116746 -0.16589779 -0.110675216 -0.19842528 -0.13319625 -0.12937954 0.099988736 -0.13132596 -0.0215459 -0.12387801 0.09626408 -0.15544355 -0.088469565 -0.17120658 -0.16736348 0.09782483
않 -0.10512581 -0.12797725 0.043413274 -0.14264715 -0.094982915 -0.04461923 -0.046790957 -0.086127594 -0.01657363 0.08645513 -0.094817206 -0.042461205 -0.14110424 -0.07251414 0.054679666 0.06541959
거 -0.101631664 -0.11640746 -0.14615323 -0.18237181 -0.027968306 -0.118192054 0.14144675 -0.11509565 0.015047003 -0.1048368 -0.13849942 -0.017733082 -0.10807977 -0.14707407 -0.03805241 -0.13408239
았 -0.12155699 -0.07781405 -0.15074371 -0.104402274 -0.14958683 -0.13572103 -0.0123107815 -0.079133384 -0.015161537 -0.11153562 0.07166311 -0.12676367 -0.05087333 -0.15919812 -0.15825608 -0.13097604
수 -0.12263768 0.18600914 -0.10910923 -0.16631266 -0.08432384 -0.120180726 -0.027488103 -0.105101526 5.3774565e-05 -0.13742298 -0.024912294 -0.06950647 -0.15873854 0.025366005 -0.08642428 -0.04262298
되 -0.11607884 -0.16131848 -0.13741764 -0.10692612 -0.15032654 -0.10930329 0.042474553 -0.1560543 0.046115767 -0.13287738 -0.092667796 -0.15098333 -0.14521144 -0.12925358 -0.14446332 -0.13171867
면 -0.11133741 -0.12393845 -0.026640989 -0.085641935 -0.10002729 -0.11145539 -0.037268937 -0.09932206 0.04175185 -0.113403775 -0.14210503 -0.0354544 -0.06058558 -0.14008805 0.0101578 -0.04437634
ㅋㅋ -0.16107604 -0.17915025 -0.12554973 -0.15065786 -0.028149897 -0.092613965 -0.03958404 -0.12476188 0.18951914 -0.14923634 -0.094494775 -0.10371957 0.17521471 -0.2152546 -0.115153044 -0.029629014
말 0.074297756 -0.15468325 -0.13152032 -0.1871944 -0.1511612 -0.13653445 0.00088039244 -0.12223331 -0.013969161 -0.045431256 -0.04746961 0.022336705 -0.16890414 -0.1640334 -0.09678576 0.08288667
연기 -0.012697596 -0.10863169 -0.13701555 -0.06460279 -0.14638463 -0.1282085 0.018017959 -0.117016025 -0.031455003 -0.09428795 -0.12681575 -0.15820466 -0.12215868 -0.034278043 -0.13563839 -0.0919936
인 -0.12552364 -0.14029919 -0.14759262 -0.101215936 -0.13530743 -0.12782997 -0.03148935 -0.1494095 0.0033827424 -0.15101545 -0.098061495 -0.13906364 -0.15363942 -0.15072061 -0.15739466 -0.11432606
주 -0.021016216 -0.16483906 -0.12796125 -0.16114381 -0.11841021 -0.11375721 0.028932916 -0.14647914 0.0110602155 -0.07905992 -0.10174265 -0.118698016 -0.1512026 -0.10118113 -0.162736 -0.1111276
내 -0.14653899 -0.16944456 -0.15155843 -0.18932872 -0.14971209 -0.13319652 0.08264406 -0.019471468 0.005021084 -0.14655685 -0.12340819 -0.07302959 -0.15312289 -0.1541806 -0.17054938 -0.08213542
최고 -0.13520144 0.15460306 -0.1560591 0.038317226 -0.07171258 -0.1330868 -0.04223406 -0.16521148 0.019405613 0.21140875 0.0634948 -0.16269583 -0.075841054 0.23900943 -0.0048208907 -0.019486735
~ -0.1474622 -0.13742732 -0.13154691 -0.13778579 -0.056405038 -0.12923688 0.15634182 -0.15046088 0.014385726 0.003526745 -0.03281822 -0.109165326 0.040730618 -0.06646637 -0.100734524 -0.14675088
평점 -0.09961023 -0.058592085 0.019600628 -0.20277733 -0.07000757 -0.12551372 0.044530693 -0.15706658 -0.018467605 0.02829718 0.12006947 -0.16674273 -0.06583104 -0.12271641 -0.014429647 -0.055023823
이런 -0.152407 -0.17116511 -0.13342492 -0.21549278 -0.1454631 -0.12103627 -0.03338861 -0.031855714 -0.044368066 -0.13549338 -0.07330469 -0.14649822 -0.1678553 -0.18666689 -0.17081742 -0.15017873
던 0.0809788 -0.101626925 -0.13727157 -0.14279379 -0.122025095 -0.11682158 -0.049780834 -0.14873013 0.009469081 -0.114415236 -0.09579101 -0.12329191 -0.13348287 -0.10437167 -0.11941578 -0.1079852
어요 -0.13620426 0.052239608 -0.060369994 -0.13941623 -0.057636272 -0.13273413 0.2749503 0.0017282276 0.0057067093 -0.14217927 0.038189 -0.02560387 0.23059066 -0.15651034 -0.1526683 -0.14289291
할 -0.09784874 -0.12801963 0.05604345 -0.13750154 -0.055390522 -0.02701723 0.02766839 -0.03440028 0.048493188 -0.13756216 -0.10495297 -0.12790474 -0.12442766 -0.07061673 -0.06193929 -0.117367804
왜 0.112171724 -0.16353327 0.014976064 -0.18545023 -0.049181327 -0.093239024 -0.04566276 -0.15526322 0.00058966875 -0.11251752 0.12644148 -0.03994064 -0.11107324 -0.15814272 0.025731888 -0.11956133
겠 -0.10753695 -0.08635522 -0.14564173 -0.16218941 -0.08515805 -0.012883463 0.14522156 -0.037982944 -0.023116767 -0.1430279 -0.0053209215 -0.0013513603 -0.12266034 -0.14751074 0.20839483 -0.033814695
1 -0.08684227 -0.18229888 -0.15758735 -0.17801633 -0.06216501 0.03928315 0.07525432 0.11373006 0.25908276 -0.09974312 -0.09969384 0.056955483 -0.13136987 -0.1245618 0.11296573 -0.13561088
스토리 -0.13638575 -0.15268382 -0.10856238 -0.17847544 -0.042675793 -0.124929875 -0.04108992 -0.026033383 0.4110413 -0.15648863 -0.055747252 -0.12743635 -0.16170399 -0.15890154 -0.089135334 0.06693412
해 -0.14101867 -0.10456997 -0.10506483 -0.1900538 -0.097466215 -0.092807606 0.04096646 -0.11714732 0.009308875 -0.1218971 -0.06767574 -0.05595536 -0.17053168 -0.16288455 -0.039920583 -0.12639295
습니다 -0.14128764 0.20200422 -0.023199536 -0.03067369 -0.16013062 -0.11706341 -0.046747256 -0.17335191 0.01833907 -0.14056514 -0.1509281 0.04491615 -0.11647761 -0.15970223 -0.13505375 -0.02946226
ㅋㅋㅋ -0.14276788 -0.16256474 -0.05763676 -0.14007516 -0.10338623 -0.11003168 0.02133752 -0.07976114 -0.116022944 -0.14718418 -0.014828366 -0.060749795 0.0012793422 -0.198598 -0.19777763 -0.18223812
... -0.16258188 -0.1888202 -0.11930881 -0.18720348 -0.08756905 -0.025047358 0.07336911 -0.16143844 0.022391949 -0.11869362 0.011471954 -0.13337004 -0.108975336 -0.1646646 -0.1111637 -0.0679367
드라마 0.0818272 -0.11495299 -0.14445217 -0.14187141 -0.0887324 -0.105780385 -0.026163187 -0.102135666 0.0186657 -0.110962726 -0.07668584 -0.13239902 -0.014478345 -0.17407086 -0.13825177 -0.14664605
생각 -0.15334849 -0.15679123 -0.13400678 -0.19420858 -0.14435881 -0.10809767 -0.022967005 -0.11164783 -0.029414523 -0.13918489 -0.03512078 -0.08226427 0.1940733 -0.16512309 -0.09889075 -0.10987711
아니 -0.0984112 -0.17712119 -0.016273733 -0.12009311 -0.043206137 -0.102270216 -0.010536007 0.05270515 -0.04074937 -0.14553839 0.07871941 0.038110718 -0.17577393 0.015417306 -0.01059369 0.09308521
더 -0.12672183 -0.17381035 -0.06952672 -0.13045539 -0.10107137 -0.0033346782 -0.01799146 -0.11592067 -0.021167804 -0.13511422 -0.04530046 0.043715768 -0.09080942 -0.15335834 -0.06851684 -0.13910727
그 -0.11738901 -0.09582346 -0.032966055 0.04302068 -0.051161252 -0.10488713 0.021070907 -0.08183386 -0.024379386 -0.12467257 -0.14096056 -0.06202459 -0.07595848 -0.1302416 -0.096403055 -0.07090753
싶 -0.12075214 -0.15645008 -0.13725266 -0.14031637 -0.14894319 -0.122836046 -0.04456116 -0.12419237 -0.01230552 -0.14351778 -0.11120683 -0.13388348 -0.11653912 -0.009663017 -0.1815553 -0.11116874
사람 -0.07322381 -0.14776257 -0.13203874 -0.091771774 -0.05470339 -0.04804113 0.02401217 -0.12399546 0.009550281 -0.07788148 -0.099939734 -0.13363664 0.026777834 0.086226255 -0.13654949 -0.10960329
듯 -0.11580374 -0.15711956 -0.16394155 -0.13886888 -0.14886291 -0.10815095 0.082471885 -0.15092723 0.00018703938 -0.1402123 -0.10044715 -0.040317062 -0.16231538 -0.14448385 0.05852762 -0.13521367
때 -0.10067602 -0.10045287 0.021896893 -0.1157884 -0.04200803 -0.06884829 0.017221889 -0.139502 -0.025151027 -0.08264666 -0.11443577 -0.052619904 0.16955307 -0.07629592 -0.03639353 0.032580286
감동 0.12673779 0.047044158 -0.07532679 -0.16129175 -0.15831763 -0.039244972 0.16952072 -0.1592195 0.0012571679 0.1878657 -0.15293592 -0.15531354 -0.15627132 -0.14406916 -0.16563115 -0.13228393
함 -0.14421245 -0.16059393 -0.06146322 -0.18939787 -0.08870128 -0.028993942 -0.003423969 -0.09522975 0.022200897 -0.1602391 -0.03493277 -0.065908305 -0.16359167 -0.16907439 -0.15836814 -0.12415921
배우 -0.1092124 -0.12586285 -0.116484515 -0.18193996 -0.14371897 -0.13260894 0.03565378 -0.017404422 0.02279118 -0.13296874 -0.091136575 -0.12648068 -0.14733428 -0.09917863 -0.08384838 -0.106172316
본 0.047943097 -0.18781547 -0.10226687 -0.1876926 -0.081826255 -0.07274881 -0.021758473 -0.10259205 -0.013679195 -0.062496766 -0.08664808 -0.09848511 -0.163985 -0.13417639 -0.0979878 -0.060622673
까지 -0.1101402 -0.09922994 -0.11542556 -0.14045574 -0.109032534 -0.11477078 0.053429123 -0.116585575 0.006108664 -0.09087372 -0.1131707 -0.1399008 -0.0918893 -0.14361149 -0.13119958 -0.100468725
뭐 -0.15807684 -0.17567796 -0.04658915 -0.19246764 -0.14810963 0.04807578 -0.04395721 0.09105756 -0.012498997 -0.13835022 0.13408494 -0.03005991 -0.16782066 -0.17188261 -0.033214785 -0.056795508
알 -0.08826376 -0.09828673 -0.12791443 -0.15500276 -0.01602966 -0.109822035 0.046788435 -0.009758542 0.10675656 -0.07690807 -0.10741151 -0.118006036 -0.07235604 -0.11808758 -0.00793056 -0.00022911339
만들 -0.11251418 -0.104328424 0.15857036 -0.19143638 -0.15627667 -0.106076576 0.11060452 -0.16511159 0.1968191 -0.0630511 -0.11488459 -0.021036461 -0.124895364 -0.08873048 -0.17496206 -0.10601674
내용 -0.117263794 -0.11758954 -0.10856122 -0.1344562 0.061899915 -0.07158602 0.018594563 -0.12745512 -0.026555313 -0.14886343 -0.0093685575 -0.15272786 -0.13299598 -0.112106234 0.12505376 -0.106944576
볼 -0.0058685215 -0.16452429 0.045769736 -0.18197894 -0.16011699 -0.002156123 0.008103369 -0.16069666 0.019062761 -0.13722102 -0.13259357 0.008991422 0.07420865 0.12998495 -0.18477626 -0.1252421
감독 -0.1261234 -0.022173895 -0.1631628 -0.11608998 -0.15918617 0.09941162 0.017329834 -0.087230265 -0.041609634 -0.07717013 -0.15947843 0.1998812 -0.06394925 -0.07739487 -0.082146086 -0.11926285
보다 -0.15286244 -0.13917267 -0.04977584 -0.20270139 -0.15697563 -0.076661356 -0.015982987 -0.15277223 0.024062743 -0.12620987 -0.118851066 -0.15711154 -0.10032613 -0.16187866 -0.06210914 -0.04324529
라 -0.15447094 -0.16817649 -0.06469972 -0.096376225 -0.107904814 -0.11998635 0.009158176 -0.10685989 0.015615229 -0.13571168 -0.046324454 0.009443483 -0.1419723 -0.10925205 -0.016290868 -0.14300823
그냥 -0.16838703 -0.09826888 -0.15641381 -0.0994642 -0.17066722 -0.119403124 -0.007984227 -0.051997133 -0.010595847 -0.1053112 -0.15754661 0.19901595 -0.13459137 -0.12895131 -0.17389004 0.02564364
재미 0.047671683 -0.067222044 -0.1601536 -0.09385547 -0.14643823 -0.09386644 0.005470463 0.06541058 0.028912943 -0.110612646 -0.14182466 0.07418063 -0.11415863 -0.09080125 -0.17247945 -0.122154035
시간 -0.14015996 -0.16568992 0.043362565 -0.17608519 -0.04469858 0.014625922 0.05074348 -0.11930562 -0.03105787 -0.12196388 0.072729364 -0.09480494 -0.15727173 -0.1464287 -0.1417606 0.07694171
지루 -0.14496158 -0.16962487 0.033715997 -0.20906317 0.035472352 0.12790315 -0.034175392 -0.0759402 -0.0043598637 -0.14764267 0.1654503 -0.043992933 -0.16661055 -0.15920618 0.13584319 0.0634258
중 -0.11884775 -0.15298156 -0.11541125 -0.17676975 -0.10755289 -0.12813804 -0.012437864 -0.16907875 -0.04093926 0.12542778 -0.06348356 -0.069346845 -0.14349315 -0.12526411 -0.12871115 -0.106907964
재미있 0.012566624 -0.18709968 -0.047629472 -0.050565895 0.025832906 -0.030390648 -0.021464357 -0.08912983 0.019879842 0.16855234 -0.14951196 -0.16163182 -0.17101954 0.2925237 -0.028224561 0.0071629724
년 -0.10874615 0.013761277 -0.11387746 -0.13401657 -0.14100061 -0.11514661 0.015735338 -0.118331954 -0.0016925447 -0.078390904 -0.13423964 -0.13034338 0.008164866 -0.055051435 -0.14370802 -0.096127585
10 -0.1097805 0.045074068 -0.13901591 -0.09799103 0.05276403 -0.089853235 0.01731445 -0.15534161 0.019328568 0.142917 0.2120603 -0.15771097 0.32453305 0.0071727177 -0.15805657 -0.12938534
였 -0.13353193 -0.165904 -0.13685767 0.0063561173 -0.17051335 -0.1341406 -0.00065455015 -0.16083355 0.020576883 -0.097056136 -0.14207509 -0.15274231 -0.15516165 -0.12501521 -0.1684782 -0.11185954
잼 -0.14543352 -0.13159981 -0.09415177 0.0057703177 -0.14144987 0.080881625 -0.015808316 -0.16829309 -0.033184543 -0.14354055 -0.08335827 -0.15243042 -0.16123213 0.30022657 -0.18132713 -0.14436634
사랑 0.049217556 -0.15105277 -0.15872258 0.14649321 -0.07732086 -0.12677929 0.03808774 -0.15346533 -0.047939744 0.04264373 -0.0029894288 -0.12973735 -0.16174927 0.17217733 -0.1576141 -0.11639538
못 -0.11972332 -0.17361583 -0.0959169 -0.17199649 0.07907488 -0.064666115 -0.019405803 0.006688663 0.08974202 -0.12372174 0.002798003 0.06148349 -0.14744653 -0.035904195 -0.05547535 0.11206853
냐 -0.12271201 -0.18512748 -0.052129224 -0.1924 0.084907085 0.04330708 0.056691494 -0.14347738 -0.019397391 -0.1413564 0.13183212 -0.011962796 -0.1620481 -0.16346253 0.07737259 0.12928197
재미없 -0.15277362 -0.17619014 0.00923898 -0.1925904 0.20434137 0.17629202 -0.02327173 0.114464596 0.26176578 -0.14470704 0.06813541 0.13887888 -0.14764585 -0.15956174 0.0055139493 0.022554256
쓰레기 -0.13483356 -0.18642864 0.18574908 -0.2070727 0.081602015 0.0810566 0.009903087 0.037288677 -0.03160397 -0.070981294 0.13341652 0.13478345 -0.034698945 -0.16190763 0.19740835 0.1477523
서 -0.11406018 -0.08492625 -0.11959265 -0.13330133 -0.149011 -0.11620514 -0.033495545 -0.10574128 -0.049715545 -0.07830136 0.0034365912 -0.14174089 -0.11866054 -0.11956104 -0.15729725 -0.13927074
2 -0.12840852 -0.1559346 -0.10161484 -0.18314534 -0.09332085 -0.069865875 0.0985623 0.0063488455 -0.0040785074 -0.13787743 -0.11440118 -0.06741194 -0.14070252 -0.1483178 0.07244714 -0.03132535
라고 -0.11982189 -0.16496378 -0.021732884 -0.16886954 0.09465526 -0.1002931 0.0015186795 -0.1187056 -0.0063414434 -0.13250428 -0.04396349 -0.09697933 -0.14223023 -0.15979366 0.053298026 0.00015670076
야 -0.10051994 -0.09980055 -0.015507792 -0.13520989 -0.09289109 -0.13038042 -0.042980976 0.026529185 0.15388833 -0.017714575 -0.16248311 -0.15922871 -0.10285336 -0.080285445 -0.15986168 0.04145837
니 -0.15192422 -0.16683634 -0.051259547 -0.18296735 0.00820638 -0.047327906 0.036256164 -0.041664965 0.02214786 -0.1407681 -0.07058698 -0.12888055 -0.14008352 -0.1562765 -0.16456918 -0.008243045
면서 -0.079144485 -0.14434618 -0.13094288 -0.14570451 -0.13469322 -0.11304928 -0.021991063 -0.117300466 0.0025973693 0.028091397 -0.06411354 -0.10003412 -0.15125877 -0.10617322 -0.1211788 -0.10257727
번 0.0093693165 -0.1268016 -0.038740218 -0.14245386 -0.15228105 -0.067549296 -0.045833718 -0.14888479 -0.023912907 0.030746793 -0.11654993 -0.052774377 0.12704177 -0.031755116 -0.16851676 -0.02017207
다시 -0.11171709 0.24072026 -0.13599826 -0.14224102 -0.14319824 -0.13174696 -0.026283372 -0.14585921 0.0039905487 0.06899889 -0.12814957 -0.13924769 -0.12261868 -0.040762566 -0.17095773 -0.11441049
나오 -0.09268768 -0.09348977 -0.086146995 -0.10511551 -0.12263561 -0.08033752 0.04013372 -0.025959667 -0.006898761 -0.11385402 0.11685439 -0.120511435 0.012268685 -0.14497997 -0.10349624 -0.0042635542
작품 -0.06880817 -0.060544938 -0.06393781 -0.06439718 -0.0831138 -0.12800214 0.21513745 -0.0858778 -0.00083965063 -0.073079415 -0.02925103 -0.13661268 -0.04894776 0.16520922 -0.16600019 -0.107053615
이거 -0.062180266 -0.16086334 0.05785486 -0.13842165 -0.12127243 -0.1123015 -0.01916207 -0.16720302 -0.011069499 -0.14853635 -0.12109361 -0.1521587 -0.11928706 -0.14896926 -0.1592644 -0.14032863
하나 -0.08522461 -0.1618835 -0.019277977 -0.17668428 0.026823843 -0.13252199 -0.000527409 0.015119978 -0.023949945 -0.06863996 0.06877934 -0.07900958 -0.12720868 -0.15946525 -0.14424032 -0.1090723
줄 -0.11219904 -0.12637097 0.048410382 -0.059144124 -0.11264194 0.011265654 0.057076138 -0.12522742 -0.041253366 -0.06311805 0.05993608 -0.08765679 0.008155499 -0.014945033 -0.14474227 -0.10178756
해서 -0.10818541 -0.11798815 -0.103661805 -0.077924415 -0.07307174 -0.119612895 -0.03916297 -0.15699269 0.19221503 -0.12688641 -0.03373957 -0.11440729 -0.14133213 -0.088495 -0.09467796 -0.09662895
개 -0.10002815 -0.15575461 0.03639447 -0.07047213 -0.13266446 0.0061775534 0.012454872 -0.14560804 -0.0070241205 -0.05162205 -0.12705313 -0.15614122 -0.14598033 -0.15035444 0.0037127028 0.14350423
남 -0.11194828 -0.1068689 -0.14661877 -0.074962735 -0.15426506 -0.13263825 -0.02594663 -0.14971012 -0.047337618 0.010192016 -0.11849833 -0.12639482 -0.117954895 -0.090259776 -0.17323495 -0.12936758
정도 -0.13006622 -0.13680157 0.056530315 -0.19845468 -0.10346821 -0.1149654 0.0027969782 -0.13790523 -0.037166547 -0.03161463 -0.1359141 -0.032633442 -0.15001243 -0.11366979 0.0071449606 -0.10363194
마지막 0.19307025 -0.11648526 -0.09827618 0.025445806 -0.15681374 -0.08625789 0.010455894 -0.012033686 0.0055031637 -0.09047171 -0.051085535 -0.16362418 -0.10049839 -0.09993525 -0.15238413 -0.0749289
끝 -0.06069545 -0.116461016 -0.1243398 -0.074963644 -0.11035095 0.13195997 0.026522757 -0.10919306 -0.033754967 -0.021299928 -0.05272252 -0.14367184 -0.1059235 -0.073736146 -0.1078341 -0.115700334
이건 -0.029252013 -0.16969816 0.0886035 -0.20460504 -0.10014599 0.21247604 -0.04484563 -0.17356788 -0.03081274 -0.1487813 -0.15037045 -0.15247121 -0.16915472 -0.16561869 -0.071756415 -0.036594898
액션 0.12578228 -0.08772345 -0.13048172 -0.118400164 -0.12701313 -0.13024169 -0.02422456 -0.049953897 0.00037326076 -0.06665547 -0.04697773 -0.08691292 -0.14159389 -0.15241908 -0.08532834 -0.13597955
임 -0.13491301 -0.17218034 -0.14249864 -0.078193806 -0.09144804 -0.12338856 0.054700702 -0.14299886 0.016943041 -0.15417959 -0.13033259 -0.16450255 -0.092573605 -0.12383305 -0.16225068 -0.14593658
ㅋ -0.14979093 0.16689396 -0.15388018 -0.14283982 -0.0010966235 -0.05805268 0.13403375 -0.06710262 0.010078013 -0.07194488 -0.073779225 -0.14661333 -0.11505487 0.020787342 -0.08729029 -0.121584035
3 -0.102059685 -0.16688482 0.081870586 -0.18330488 -0.069824286 -0.08275858 0.0548374 -0.07401968 -0.005845763 -0.12683584 -0.1054367 -0.06208456 -0.14256108 -0.16141136 0.007676856 -0.12899074
기대 -0.03829199 -0.16721174 -0.14726394 -0.0046883584 -0.03575636 -0.14386508 -0.04455321 -0.086126104 0.022019366 -0.07062122 -0.15241295 -0.15505818 -0.1352124 -0.13886078 -0.095488146 -0.11981297
입니다 0.05851383 -0.16124198 0.031548813 -0.096751355 -0.15404703 0.005481765 0.14580606 -0.16115543 0.021494985 -0.0451046 -0.13805905 0.02794134 0.1737731 -0.13186482 -0.07595899 -0.004076218
건 -0.103441015 -0.09772297 -0.069245085 -0.14784642 0.017434645 -0.11691192 0.06707694 0.17093776 -0.031804755 -0.12616712 0.01732506 -0.15294062 -0.10715882 -0.12923834 -0.126553 -0.028377034
라는 -0.13874789 -0.13605413 -0.11793664 -0.15187357 -0.041615803 -0.108580686 0.038383696 -0.111568175 -0.024334265 -0.122016974 -0.10289018 -0.102171995 -0.10988814 -0.11915065 -0.1315436 -0.10942317
분 -0.11407092 -0.020910228 -0.11306021 -0.09022704 -0.06716722 -0.10533196 -0.00651315 0.11929594 -0.0006236322 -0.06680452 -0.09487398 0.105153754 -0.14751294 -0.12409225 -0.033948254 -0.1164565
완전 -0.026417557 -0.122943796 -0.1576486 -0.15240711 -0.15090618 -0.051500604 -0.024063345 -0.15268232 -0.04677534 -0.08272709 -0.1475916 -0.16926262 -0.15008713 -0.07873678 -0.16708641 -0.13249753
다는 -0.13332571 -0.1490485 -0.0414439 -0.1390885 -0.14593543 -0.08658446 0.026155308 -0.12579204 -0.0080225095 -0.12241836 -0.09530188 -0.13511974 -0.12803216 -0.11110017 -0.14772181 -0.128666
참 -0.15484914 -0.15816005 -0.094466485 -0.1670712 -0.16458842 0.05753296 0.05250479 0.03713444 -0.03716154 -0.14704712 -0.088989615 -0.086253315 -0.14469212 -0.12728141 -0.18443634 -0.1440705
많 -0.10373734 -0.16618666 -0.15724885 -0.19179751 -0.014057931 -0.059840158 0.019193364 -0.09549365 0.011356879 -0.004592235 -0.025271874 -0.058461178 -0.15606411 0.18530114 -0.036456008 -0.05695515
처음 -0.12902349 -0.16768327 -0.065655254 -0.18737291 -0.096292056 0.0030022375 -0.030589854 -0.045895737 -0.018226553 -0.13882324 -0.09446385 -0.0506667 -0.16883264 -0.14976084 -0.12628198 -0.069713004
장면 -0.087824 0.000954275 -0.11652413 -0.11576494 -0.08564888 -0.10018452 -0.011688113 -0.101464674 0.021056823 -0.011114769 -0.10184239 -0.12605762 -0.057612102 -0.038323358 -0.15148954 0.037766814
대 -0.061171193 0.02768935 -0.038056504 -0.14230104 0.00322605 -0.06532471 0.009951873 -0.12666777 0.023941804 -0.11261258 0.033671807 -0.017118197 0.08382316 -0.07001642 -0.08277434 -0.077034645
아깝 -0.14899734 -0.16564435 0.065864354 -0.18702361 0.06486596 -0.053318765 -0.02331282 -0.14137004 -0.0008547902 -0.14105 0.06592389 0.3113044 -0.15720801 -0.1465736 0.05538657 0.08016943
다가 -0.106749706 -0.15246746 -0.022910275 -0.13990894 0.13606232 -0.11821034 -0.034306146 -0.02057917 0.0017292388 -0.11350962 0.08524733 -0.01894337 -0.14680459 -0.14166494 -0.09317045 -0.023970943
으면 -0.11292321 -0.14100339 -0.11585948 -0.04917867 -0.002678288 -0.086639255 -0.019049108 -0.07310501 0.021937346 -0.1194046 0.015989637 -0.061943457 -0.12160205 -0.0036833365 0.044697482 -0.01425944
지금 0.15569806 -0.09755239 -0.12919798 -0.13507234 -0.066895954 -0.12933879 -0.03886782 -0.14392968 0.00035168976 0.06386108 -0.03539954 -0.00396097 -0.040025182 -0.032303594 -0.16640599 -0.031289235
모르 -0.105087675 0.12321233 -0.00011718075 -0.16125128 -0.109374635 -0.07897781 -0.04450908 -0.12351119 0.01793072 -0.13409309 -0.087119274 -0.13616244 -0.12930536 -0.14440529 -0.15024036 -0.00064760546
이렇게 -0.11933757 -0.067478925 -0.10663765 -0.13950355 -0.058253743 -0.0953015 -0.005681645 -0.13021804 -0.004736124 -0.13886453 -0.03763681 -0.039431423 -0.1570323 -0.13355747 -0.11524059 -0.09125542
' -0.05413543 -0.06525824 -0.03634903 -0.052437734 9.004041e-05 -0.11845028 0.036169633 -0.07481969 -0.041246127 -0.009527577 -0.0082281 -0.09430906 -0.047721587 -0.067350045 -0.062609725 -0.110543005
편 -0.030889275 0.0069003287 -0.11537811 -0.058713414 -0.07947811 -0.11888993 -0.009843409 -0.118426494 -0.044246912 -0.13948117 -0.03394822 -0.07694963 0.05493764 -0.13813853 -0.09677795 -0.113250114
일 -0.12362591 -0.010273214 -0.0053908466 -0.045905326 -0.05673686 -0.096460894 -0.03166907 -0.07596237 -0.026570404 -0.14521195 -0.041054193 -0.05030884 -0.1265362 0.043688044 -0.0010773713 -0.09766973
돈 -0.14341363 -0.1720227 -0.06400465 -0.16127223 -0.039455727 -0.07548259 0.052884944 -0.08415257 -0.01215253 -0.14052269 0.13216604 0.14743869 -0.15369757 -0.15487622 0.16547465 0.1577474
이게 -0.16522841 -0.0993032 0.029677225 -0.19758685 -0.022436196 -0.13201371 0.012376144 -0.10686713 -0.017939366 -0.1402524 0.06145498 0.13827111 -0.06350258 0.08401525 0.012600707 -0.13745837
성 -0.055376705 -0.12778814 -0.1401873 -0.1604159 -0.036753193 -0.1042523 -0.0008502293 -0.05882445 0.17847018 -0.1068865 -0.11548238 0.13528018 -0.12534119 -0.13337755 -0.11333499 -0.09593139
느낌 -0.04814382 -0.15622967 -0.042012133 -0.15264082 -0.1462998 -0.12402925 0.008885831 -0.10527522 0.006587304 -0.13168792 -0.02847677 -0.064468466 -0.1489566 -0.13213988 -0.16538623 -0.13219321
시 -0.08572528 -0.07085988 -0.12394402 0.06359702 -0.14158931 -0.110067934 -0.0026347234 -0.13726681 -0.026925493 -0.06959944 -0.12328634 -0.13208292 -0.09419907 -0.023403537 -0.108241625 -0.11614151
이야기 0.029930014 -0.14998785 -0.056168824 -0.08042892 -0.06051512 -0.10805353 0.055538055 -0.14171918 0.068125136 -0.0068686893 -0.03358561 -0.053400822 -0.1497784 -0.13424592 -0.13054311 -0.078755744
최악 -0.10448618 -0.1561273 0.2590179 -0.18012021 0.09242593 0.2267465 0.102837995 0.26196146 -0.029931117 -0.11983344 0.032895036 0.12827043 -0.12841429 -0.14153002 0.25410903 0.23137242
된 0.031159777 -0.077596046 -0.11156637 -0.12475568 -0.13959032 -0.117986925 -0.001094995 -0.12799783 -0.00688795 -0.0562372 -0.11182039 -0.13276906 -0.079750784 -0.061983638 -0.12502143 -0.09261852
봐도 -0.040115826 -0.16303 -0.11843831 0.2079691 -0.1407291 -0.10143884 0.08452117 -0.139974 0.01807839 -0.12182561 -0.1272935 -0.12803018 -0.11414772 -0.104077026 -0.1558645 -0.11054831
님 -0.0062000374 -0.11538372 -0.12029268 -0.10349371 -0.09055298 -0.08966373 0.14294134 -0.11299267 -0.03343632 0.15156992 -0.14635627 -0.0012178698 -0.0901882 -0.098480396 -0.111913085 -0.10559184
어서 -0.111456655 -0.13453554 -0.07117821 -0.15323313 -0.028162785 -0.045262937 -0.0026784723 -0.048788592 -0.028300954 -0.10684281 0.039209813 -0.1020034 -0.1461118 -0.14048018 -0.13464409 -0.098320596
애 -0.08149136 -0.10464882 -0.07346635 -0.110440925 0.01274622 -0.045098808 -0.009651618 0.08437556 -0.04316906 -0.06269381 -0.07629049 -0.09308641 -0.089934394 -0.09470693 -0.16270895 -0.02341029
전 -0.098968536 -0.09431965 -0.13313098 -0.13575673 -0.12794535 -0.09358192 0.028316228 0.01898519 0.0026653968 -0.10000418 -0.12214662 -0.1501225 0.12457269 -0.10336624 0.022044905 -0.123828
넘 -0.0647225 -0.043340083 -0.14545561 0.047907114 -0.08238167 -0.08534699 -0.04887004 -0.049853086 -0.027140105 -0.14550668 -0.1337139 -0.16183329 -0.11505234 -0.15870291 -0.08689495 -0.05756409
ㅠㅠ -0.15941878 -0.18557061 -0.023554936 -0.084929995 -0.09958174 -0.05014941 -0.0625084 -0.10395659 0.10579792 -0.13975397 -0.04801121 -0.059132405 0.23398815 -0.1441046 -0.06470895 -0.004012799
인데 -0.13171834 -0.14020151 -0.061286032 -0.039558236 -0.11655018 -0.09876353 0.05739171 -0.13727315 0.008100938 -0.11592712 0.019515656 -0.071163006 -0.13990088 -0.13232215 0.019762231 -0.08964899
다고 -0.119614206 -0.018551543 -0.12548523 -0.10617951 0.11799092 0.18004405 -0.018736482 -0.09177194 -0.03356786 0.016123766 -0.10572761 -0.15490204 -0.11916925 0.262257 -0.15546308 0.038301073
이해 -0.05057369 -0.17588322 -0.08482664 -0.11013501 -0.0058355224 -0.091487035 -0.0399163 -0.10913072 -0.009021234 -0.0858464 -0.08790576 0.053529546 -0.09313145 -0.07196645 0.011680952 -0.14211068
별로 -0.15591915 -0.19533339 0.090567514 -0.10400487 -0.0031203122 0.014573064 0.108489186 0.03591613 -0.026558293 -0.14356239 0.17668939 0.19582291 -0.16723204 -0.12371972 -0.0508172 0.21942668
그리고 -0.09818131 -0.100761674 -0.09637302 0.018987752 -0.069478825 -0.08495977 0.028861994 -0.098752506 -0.015933253 0.092042364 -0.14316727 -0.12105557 0.06114739 -0.06736717 -0.07266931 -0.05908997
명작 -0.116826616 0.2480125 0.0060301204 -0.06985755 -0.034673616 -0.093379244 -0.0016143995 -0.16410126 -0.009147964 0.2664214 0.104870126 -0.15395306 0.0763395 0.0626566 -0.092430346 0.10469636
여자 -0.015446097 -0.08362427 -0.11548125 -0.04586253 -0.016989997 0.094642326 0.0478391 0.13590986 0.020166527 -0.0025210152 -0.113455825 -0.124017484 -0.030506957 -0.15065372 -0.1509179 -0.11706561
^^ -0.13229252 0.10647659 -0.1376027 -0.13822806 -0.08739731 0.1389633 0.0021018684 -0.16738115 0.008950613 0.22591618 0.053787895 -0.15901428 0.15216477 -0.05315007 -0.08844407 -0.14560524
역시 0.07740919 0.1634891 -0.12659992 -0.14147411 -0.15081897 -0.12448396 -0.039802153 -0.16036052 -0.03356874 -0.06404243 -0.07810316 -0.08235091 -0.0778712 -0.0032063404 -0.14268242 -0.08856987
난 -0.1443196 0.16274951 -0.0541946 -0.17391777 -0.17418332 -0.11985321 -0.005065655 -0.16001268 0.0067719445 -0.13221852 -0.115382075 -0.15245213 -0.17093855 -0.15980384 -0.15743501 -0.096495725
이상 -0.14495559 -0.09841314 0.07609705 -0.20086741 -0.051523924 -0.05993985 0.01697744 -0.08616043 -0.030201746 -0.13782892 -0.06334083 -0.0404272 -0.16838044 -0.16123946 -0.09061491 0.013633413
또 0.11392163 0.028103236 -0.13772918 -0.040976264 -0.15378787 -0.122399695 0.040634148 -0.124788135 -0.015862942 0.07263174 -0.10211196 -0.13284388 -0.052398324 -0.13943513 -0.1607013 -0.11311587
걸 -0.12927079 -0.15680064 -0.053145386 -0.14881963 0.029224433 0.044975627 -0.0026707316 -0.118614666 -0.044313647 -0.12036821 -0.100784324 0.04893928 -0.14017794 -0.16583794 -0.14409745 -0.11290652
한국 -0.029061811 0.06451587 -0.06180791 -0.17957164 -0.079873264 0.012886342 0.05657196 -0.029249575 0.0058066845 -0.040143654 -0.070967905 -0.07761797 -0.103138804 -0.04020153 -0.052960634 -0.06626746
는지 -0.10203286 -0.1719289 0.118368044 -0.09071469 -0.04774434 -0.05478999 -0.027569216 -0.07515937 -0.03850148 -0.07790751 0.07846051 -0.11390654 -0.053819675 -0.077190116 -0.12858035 0.11745137
많이 -0.14281766 -0.16484378 -0.13710624 -0.06687876 -0.14373009 -0.025335914 0.009777759 0.050614726 -0.041891623 -0.14216347 -0.07334574 -0.041614316 -0.15935624 -0.16590783 -0.16079389 -0.12779012
에게 -0.03351955 -0.030585837 -0.119317554 -0.09242959 -0.016198413 0.024310222 -0.01719113 -0.08285034 -0.020460904 -0.071149215 -0.09832551 -0.014790722 -0.1015041 -0.13689516 -0.09977881 -0.029303422
부터 -0.090844296 -0.086229585 -0.068930574 -0.14608175 -0.09148794 0.038293663 0.0010840297 -0.05951273 0.015784893 -0.13088976 -0.08857214 -0.070979334 -0.1328459 -0.100454755 -0.12169375 -0.06626474
만든 0.028282478 -0.12023976 -0.14614385 -0.07913443 -0.15235412 -0.1277027 0.004017969 -0.15209919 -0.0030110702 -0.10777273 -0.10844907 -0.13524987 -0.11017773 -0.062779345 -0.15158209 -0.026763037
주인공 -0.0928824 -0.08558841 -0.03697597 -0.09666051 -0.14639008 0.059332702 -0.0020888564 -0.10686567 0.020040464 -0.06480218 -0.042336404 -0.063956365 -0.052957162 -0.09736652 -0.06614669 -0.010642861
받 -0.11557323 0.016429668 -0.14046218 -0.150136 -0.08688163 -0.051214457 0.056134637 -0.088461235 0.011993424 -0.030016297 -0.061688237 -0.05707263 -0.11475104 -2.4822424e-05 -0.09691802 -0.026662607
합니다 0.09527571 -0.081607796 -0.12427713 -0.08815764 -0.059831765 -0.13244562 -0.044973254 -0.09516348 -0.017595388 -0.12861179 -0.09415987 -0.04607588 -0.14160892 -0.16839595 -0.005496091 -0.11917899
우리 0.006262092 0.0012515542 0.08813343 -0.13500842 -0.13383564 -0.068537004 -0.036080457 -0.13226312 0.02191234 0.22042282 -0.1017289 -0.09327293 -0.045708448 -0.09505795 -0.122858174 -0.0771007
두 -0.09015141 -0.11418898 -0.12969221 -0.091996446 -0.0807152 -0.10573965 0.011998626 -0.13780962 -0.013861299 -0.07470473 -0.11648091 -0.15086359 -0.05400608 -0.0838137 -0.110775106 -0.12094335
살 0.120696776 -0.17401935 -0.0885148 -0.18732177 -0.03545555 -0.051184032 -0.037215374 -0.10914138 0.024259482 -0.14837928 -0.1001095 -0.13071238 -0.16820844 0.113380775 -0.017694661 -0.099144526
!! -0.1172973 0.0045653456 -0.14952852 -0.18267414 -0.17447326 -0.1327858 0.012981129 -0.032476462 0.023231126 -0.14713812 -0.11758134 -0.09105758 -0.020680008 -0.12170688 -0.17000379 0.012858945
길 -0.12207238 -0.15426677 0.0043935264 -0.17409247 0.0008424979 -0.061023206 0.0006802003 -0.022604015 -0.024788845 -0.100410745 -0.13339423 -0.0034309356 -0.16407378 -0.15029079 -0.026504314 -0.11442499
엔 -0.11111314 -0.11492533 -0.022491708 -0.12553363 -0.112940766 0.017869657 0.043285843 -0.10355493 -0.013631463 -0.017895598 0.06552638 -0.0373189 -0.060189847 -0.028281674 -0.13902129 -0.10093014
괜찮 0.04492584 -0.057637755 -0.15913011 0.19852425 -0.15492629 -0.13600254 0.042851947 -0.15732113 0.016478363 0.039995715 -0.12745687 -0.15049295 0.041582536 0.05363308 -0.16038921 -0.12878089
기억 0.10856822 0.07305143 -0.13380268 -0.12633222 -0.14583322 -0.10986049 0.04759912 -0.14977886 -0.012157917 0.0047619496 -0.101290226 -0.1288406 -0.11877252 -0.14274384 -0.16641629 -0.12929207
연출 -0.08554883 -0.13257514 -0.00857821 -0.12617806 -0.13878885 0.089224234 -0.044849407 -0.06273346 -0.0208166 -0.11043646 -0.02121388 -0.016451301 -0.13341226 -0.11753396 -0.100776635 -0.12261068
한다 -0.1375553 -0.046002142 -0.019950295 -0.14600983 -0.13787696 -0.028572207 0.04963969 -0.09346707 0.018537175 -0.023266217 -0.06845296 -0.018822707 0.00015344154 -0.1441379 0.00852882 -0.12309105
때문 -0.05254473 -0.092777 0.012103682 -0.12632282 -0.012776398 -0.121032394 0.027518585 -0.10347511 -0.0059170146 -0.04686408 -0.004217422 -0.09680907 -0.089303404 -0.1186581 -0.06405025 -0.08943102
이나 -0.10873675 -0.13718987 -0.07917855 -0.07379411 -0.1276111 -0.07463697 -0.021821368 -0.029609384 0.008168243 -0.101574 0.2024138 -0.085876465 -0.11973748 -0.119255655 -0.034843326 0.02277703
ㅎㅎ -0.1517026 -0.14390737 -0.11066958 0.30201223 -0.05494399 0.03582211 0.20080738 -0.05213674 -0.043254126 0.0032354863 -0.01409461 -0.07045449 -0.15300927 0.06888769 -0.13794856 -0.14944021
요 0.0035473702 0.06354783 -0.1359545 -0.20750654 -0.14501214 -0.11315747 -0.013735994 -0.150951 -0.031247294 -0.004543905 -0.15313785 -0.1544367 -0.15629122 0.00015236359 -0.15474387 -0.10804236
저 -0.018007621 -0.12857012 -0.0207608 -0.15172726 -0.07494725 -0.0757915 -0.027895844 -0.085606575 -0.04049655 0.08310614 -0.078812875 -0.043842554 -0.07212723 -0.1342644 0.032302167 -0.035686724
재 -0.10643607 -0.05756747 -0.13430156 -0.11812451 -0.15515609 -0.12306208 0.016213428 -0.11149828 0.0265703 0.17250606 -0.075249255 -0.16259311 0.038939007 -0.1351414 -0.16762072 -0.11022539
꼭 0.051506758 0.12607531 -0.129142 -0.11367863 -0.14924942 -0.12795162 -0.0058092135 -0.022838226 0.0013451576 -0.08381048 -0.012113648 -0.13583261 0.2278372 0.09782175 -0.18827061 0.026343308
랑 -0.014236849 -0.13653885 -0.05884629 -0.13473442 -0.0820486 0.03550897 0.036625654 -0.112695836 -0.006869007 -0.08459377 -0.14569663 -0.14116329 -0.064577155 -0.15084831 -0.13949706 -0.037525017
며 -0.011475846 0.11732419 -0.05857837 -0.073527634 -0.06937472 -0.07334717 -0.045128692 -0.09309189 -0.03970611 -0.10668902 -0.08794424 -0.11420481 -0.0064878385 -0.06355687 -0.14984407 -0.10335383
현실 -0.027243461 0.059429508 -0.042182013 -0.18840711 -0.023003155 0.022321653 -0.0082054725 -0.11123067 0.016638452 0.18014705 -0.025497075 -0.057244834 -0.032224804 -0.04709828 -0.09678334 -0.06552891
긴 -0.13838597 -0.12426494 0.08323227 -0.16667621 0.039890278 -0.11876508 0.028026838 -0.07445683 -0.040925585 -0.1131099 0.03657955 -0.0072009056 -0.14274083 -0.13266374 0.060027774 -0.0074181743
ㅡㅡ -0.050942965 -0.09716391 0.06813597 -0.102571376 0.18450202 0.014771981 0.12850213 -0.12238661 0.0064068325 -0.07740451 0.101530544 -0.017254595 -0.10258089 -0.06643696 -0.109613806 0.11421951
무슨 -0.086189955 -0.14903553 0.09681452 -0.18531772 -0.16509828 0.061254222 -0.005228682 -0.13491213 0.02118763 -0.12458986 0.1908294 0.01874495 -0.06961444 -0.16624673 0.16652764 0.034230944
내내 -0.1105407 -0.14788863 -0.09859582 -0.16816922 -0.103949495 -0.06349159 -0.014045201 -0.108199015 0.01076261 -0.1103089 -0.06829935 -0.12009187 -0.1494901 -0.13189611 -0.112802096 -0.07770859
결말 -0.117575414 -0.112994514 -0.008354709 -0.17228983 -0.07922898 -0.1126944 -0.015165684 -0.09139305 0.016208336 -0.08774946 0.026294393 -0.054992642 -0.15855972 -0.16534387 -0.06319936 -0.115044236
죽 -0.024566406 -0.063646354 0.017560026 -0.14998806 -0.06955125 -0.05471506 0.0048845448 -0.16249357 0.015053663 -0.14108229 -0.09879484 -0.15521778 0.10095785 0.038682118 0.19205007 -0.00050935755
남자 -0.057431016 -0.010465097 -0.13925235 0.026067039 -0.07924892 -0.119296804 0.045414265 -0.1225917 -0.035860848 -0.0602377 -0.045257818 -0.11896418 -0.0737756 -0.054770853 -0.16231109 -0.13284832
세요 -0.10151545 0.0225663 -0.018930681 -0.1315494 -0.14567032 -0.13098325 -0.027568102 0.03792123 -0.047644295 -0.107279114 -0.115809664 -0.076037504 -0.1432157 -0.045093477 -0.18131563 0.010748996
전개 -0.08494794 -0.15383212 -0.010015973 -0.1519731 0.058530588 -0.06576126 0.11031883 -0.12548275 0.010845304 -0.1106257 0.1530281 -0.13650636 -0.12678511 -0.11214993 -0.10768812 0.13614684
마음 -0.12764972 -0.14793979 -0.026936136 -0.1404371 -0.13596494 -0.10751586 -0.044841517 -0.13952981 -0.037130117 0.11739306 -0.14865227 0.07903316 -0.047328763 0.2539041 -0.13005905 -0.084174834
소재 -0.11123466 -0.16232955 -0.14358184 -0.09821668 -0.056445546 0.16259636 0.051234458 0.035577226 -0.0032209642 -0.106996365 -0.088444196 -0.066246174 -0.13970049 -0.11583229 0.12439888 -0.11128175
속 -0.12773438 -0.08435292 -0.06610904 -0.10078757 0.025115838 -0.038368892 0.00883469 -0.05064207 0.022748647 -0.102342874 -0.16368555 -0.042868815 -0.06790891 -0.079304256 -0.06011782 -0.08929282
공포 -0.13992459 -0.15886654 -0.13447146 -0.16758086 -0.11667459 -0.13054958 -0.022335134 -0.1427628 0.014997224 -0.14201385 -0.080560096 0.007313272 -0.15814735 -0.16023082 0.12231423 -0.10240222
아서 -0.12512861 -0.083364986 -0.12012321 -0.1388563 -0.02382097 -0.11794391 0.011634378 -0.13098903 -0.013625704 -0.08217758 -0.041080937 -0.023129974 -0.11484617 -0.10870958 -0.1464423 -0.020856602
다른 -0.10788122 -0.15098071 -0.11312895 -0.05434849 -0.11075965 -0.10885369 0.0058237393 -0.116579175 0.0066132904 0.085313894 -0.11119916 -0.042646572 -0.049224716 -0.15027393 -0.003464277 0.011461821
씨 -0.07888793 -0.0799731 -0.047331583 -0.012950017 -0.14719962 -0.072371274 0.019464508 -0.04094323 -0.004403961 -0.12705195 -0.106954895 -0.13926235 -0.15616988 -0.060622994 -0.12665269 0.0052674552
인생 0.09659493 0.067002 0.07577772 0.0551928 0.009361428 -0.027076883 0.018760791 -0.1475389 -0.013389181 -0.020635052 -0.15367551 -0.13467096 -0.06768766 0.2627602 -0.15818214 0.121303156
~~ -0.09260348 -0.15424557 -0.14348954 -0.022255303 -0.17155652 -0.11779729 -0.04543948 -0.12957662 0.02115557 0.061250318 -0.091719955 -0.11677054 -0.1121586 -0.1393626 -0.16663669 -0.1387315
짜증 -0.16053653 -0.16162127 0.27021918 -0.18876019 0.16234392 -0.07398215 0.03308354 -0.05173672 -0.008907735 -0.10552037 0.27412403 0.07770735 -0.059062794 -0.16058916 -0.063560314 -0.02829253
짱 -0.1479492 -0.08532719 -0.04115053 0.038075738 -0.07242368 -0.0401127 -0.02701456 -0.047040913 -0.048335206 0.14855042 -0.051840123 -0.16346574 0.20384051 0.034262814 -0.0489013 -0.08197733
뿐 -0.06299741 -0.016698876 0.15657064 -0.07551678 -0.02175853 0.053835806 -0.016445111 0.0601326 -0.04732689 -0.13206084 -0.109242074 0.09179225 -0.14382938 -0.1462895 -0.13405892 0.050271045
은데 -0.04696214 -0.09029915 0.058210585 -0.09808562 -0.14763716 -0.09132202 -0.014186621 -0.15431386 -0.034511615 -0.023678018 -0.09925191 -0.14596564 -0.009037938 -0.13035212 -0.14728962 -0.12302335
별 -0.14232884 -0.15583794 0.02538091 -0.16590601 -0.09278047 0.095432125 -0.049622525 -0.14358416 0.0022613518 -0.12027991 0.117562234 -0.11623339 -0.12935089 -0.13030255 -0.022211215 0.033519123
아요 -0.11336728 -0.11828048 -0.082967 -0.13133828 -0.005672088 -0.100148864 -0.015191884 -0.07544125 0.022011608 0.15048721 -0.14382072 -0.13603432 -0.11195774 -0.1176447 -0.17388332 -0.13263087
유치 -0.14938304 -0.15828799 -0.06200315 -0.19292359 0.118462205 0.22169936 -0.034981012 -0.048843 -0.014602434 -0.14604507 0.11833851 -0.026020687 -0.15822765 -0.15915328 0.052808277 -0.00951428
가장 0.10176892 -0.07091386 -0.13082974 -0.13905342 -0.14317578 -0.08750899 -0.034339026 -0.14880545 0.018733736 -0.087995835 -0.1116143 -0.11428898 -0.12724853 -0.119033195 -0.13957432 -0.12632743
필요 -0.12713106 0.06186209 0.105547294 0.20456313 -0.15828915 -0.13317977 -0.03623874 -0.12676041 -0.034413707 -0.12937118 -0.0075919093 0.031345304 0.10058408 0.15298662 0.059018236 0.15937471
음악 0.17587095 -0.07739903 -0.11875492 -0.08776316 -0.03434807 -0.1286509 0.011362786 -0.15073076 -0.034089364 0.03008055 -0.12145981 -0.14863175 -0.11483837 -0.098321356 -0.055104315 -0.042139538
) -0.08699484 -0.05543456 -0.120870076 -0.103060834 -0.04112572 -0.061373018 -0.044967115 -0.101928376 -0.0036008472 0.07948581 -0.09085015 -0.03585532 -0.009535846 -0.049869973 -0.10446853 -0.029635577
일본 -0.054917328 -0.15306583 -0.101465434 -0.16632847 0.10634107 -0.12637733 -0.047801055 -0.13364014 0.08869032 -0.14069468 -0.10646184 -0.12958312 -0.08265128 -0.13961613 0.07880435 -0.05867883
낮 0.101063766 -0.013477141 0.14015156 -0.07173207 -0.11914744 -0.12330914 0.010564699 -0.11944749 -0.045729578 0.35451618 0.18979052 -0.15319647 0.113308534 -0.10383033 -0.117235266 0.044971894
아이 0.027443089 -0.1089268 -0.017982975 -0.13486144 -0.03682504 -0.03332424 0.038999286 -0.067897364 -0.015515424 -0.13575062 -0.105822444 -0.12850606 -0.12982853 0.031023592 -0.124997355 0.010082996
;; -0.047366604 -0.053676777 0.0868399 -0.06383241 -0.088522404 -0.12825276 0.026010368 -0.15681294 0.011563562 -0.15446252 0.09924679 0.10944372 -0.09808906 -0.041385144 -0.042198434 -0.12004536
오 -0.16237658 -0.13449237 -0.049323153 -0.22633117 -0.10271554 -0.087539375 0.07452205 -0.08157462 -0.044537116 -0.027476545 -0.11515528 -0.1372405 -0.0358715 0.022261178 -0.07949629 -0.100138046
반전 0.020464657 -0.11359217 -0.14737083 -0.10747838 -0.10932991 -0.123303466 0.052289598 -0.1586252 0.024976723 0.0075467923 -0.10328388 -0.13772488 0.010992108 -0.14614429 -0.16089332 -0.1330017
수준 -0.1660799 0.025616355 0.045033388 -0.059276775 0.0051642926 0.118720055 0.10713201 0.22025663 -0.039380778 0.10558654 -0.055247232 0.13464437 -0.15349443 -0.15340517 -0.111961104 -0.006857604
다니 -0.1415469 0.031425007 -0.018201562 -0.08113293 -0.058836628 -0.12377836 0.019385202 -0.15214445 -0.001410842 -0.12428182 0.09396315 -0.008289947 -0.13812873 -0.12768628 -0.093419425 -0.11082779
웃 0.1306298 0.02512194 -0.06368798 -0.08893606 -0.07220543 -0.06703038 -0.011293127 -0.0070063653 0.024964826 -0.0833823 -0.06949957 -0.17323627 -0.085129276 -0.16218702 -0.05217518 -0.13567162
매력 -0.11085526 0.23146965 -0.15635115 -0.09329774 0.0002616475 0.06842927 -0.035776936 -0.13539559 0.028162442 0.107359104 -0.16276048 -0.15548147 -0.12174543 -0.020604333 -0.100761116 -0.0047127334
맞 -0.02360321 -0.15622516 0.036693573 -0.16451627 -0.019044008 -0.11547803 0.0015551284 0.12804012 -0.020477105 -0.14597328 -0.1016901 0.08060257 -0.09571153 -0.14693308 -0.13565347 -0.08781681
인지 -0.12854323 -0.14096434 -0.06432752 -0.16117148 -0.04980531 -0.09420613 -0.04151956 -0.018018275 0.004422795 -0.12480402 -0.08754252 0.105150014 -0.13757642 -0.13761732 -0.07834801 -0.08683535
가슴 -0.09995521 -0.038105298 -0.11233789 0.00784275 -0.03704641 -0.11326226 0.040337086 -0.15425232 -0.011265386 -0.11008894 -0.021346254 -0.05007657 0.16858684 0.21485695 -0.14142613 0.02663593
없이 -0.069358066 -0.075291984 -0.12633215 -0.085546285 0.0012927575 0.006059322 0.054184217 -0.023772886 0.009179138 -0.0027484566 0.053947784 -0.09609293 -0.11601423 -0.14673512 -0.024427794 -0.023790503
원작 -0.13671643 -0.024652464 0.034977607 -0.13952652 -0.11727947 -0.12660338 0.015522981 -0.0028192091 -0.038858376 -0.14504273 0.12906389 -0.101449326 -0.076814145 -0.06966685 0.12187861 -0.092330955
ㄷ -0.16298689 0.11568159 -0.019787373 0.07711705 -0.07242512 0.003232014 0.025099928 -0.0767534 -0.000451006 -0.14971086 0.02672692 -0.07680825 -0.12675768 -0.09482655 -0.06808436 -0.05155386
인간 -0.07157223 0.033831228 -0.052963134 -0.019263413 -0.10296705 -0.09018839 -0.0056360587 -0.103452116 0.019818923 -0.04651949 -0.077066444 -0.123498574 -0.07158826 0.21014023 -0.13172449 -0.104254805
데 -0.12936455 -0.111378916 -0.1253374 -0.14223681 -0.13134256 -0.056572616 0.036533237 -0.12762973 0.022822123 -0.13064307 -0.112474084 -0.1479764 0.0068356963 -0.12434088 -0.10965769 -0.012334256
굿 0.10617506 0.06842083 0.05653612 0.25301743 -0.031363152 0.0040015625 -0.04536426 -0.05059137 0.0003185384 0.16952187 -0.1564798 -0.16182053 0.028063083 0.025620012 -0.18575072 0.003263694
ㅠ -0.001520523 0.070305854 -0.12552409 -0.06308712 -0.067727014 -0.118975244 -0.03959302 -0.12847406 -0.000910569 -0.15269704 -0.11818733 -0.13893105 0.12568676 -0.046247177 -0.14436163 0.02000001
높 -0.124960415 -0.16042309 0.04525814 -0.20450956 0.06522312 0.09295967 -0.037972607 0.19995023 -0.0019609316 -0.13796477 -0.082430534 -0.06895742 -0.14294365 -0.14402477 -0.12582985 -0.1098257
밋 0.061455574 0.23908654 -0.14681946 -0.11818735 -0.15473805 -0.12220533 -0.020751683 0.048022594 -0.031848684 0.18310441 -0.1264083 -0.15807603 0.041888475 0.09352042 -0.16985138 0.10950437
( -0.08829455 -0.13077436 -0.024675002 -0.13351692 -0.06971204 0.056970734 -0.021628296 -0.11695343 -0.009560965 -0.079971895 0.00096086436 0.051513404 -0.14075945 -0.09673325 -0.031181939 0.104830615
만드 -0.07569001 -0.14374523 -0.1223502 -0.17732015 -0.12892213 -0.08066185 -0.027240956 -0.12632574 0.008189548 -0.055391364 -0.08554844 -0.11421574 -0.13645796 -0.13910522 -0.04069448 -0.09997194
급 -0.05562476 -0.07557932 -0.14668982 -0.052695546 -0.10393968 -0.12123502 0.047928195 -0.10221711 0.0068819635 -0.07523495 -0.10415882 -0.06967149 -0.13900511 -0.074245244 -0.14721347 -0.11510719
눈물 -0.03995078 0.042031676 -0.15435226 0.24932675 -0.14789756 -0.0899928 -0.03131689 -0.1444221 -0.014602136 -0.0863314 -0.12056071 -0.12458008 -0.13688318 0.14057527 -0.16139893 -0.12758885
보여 0.023005644 -0.030084012 -0.06292622 -0.06945138 -0.11031263 -0.114010796 0.047094718 -0.102499224 0.0047907457 -0.051565066 -0.09315375 -0.11019462 -0.027287671 -0.058626067 -0.16370952 -0.09987876
준 -0.11302905 -0.14355874 -0.13468139 -0.14185475 -0.13738744 -0.10086668 0.015725955 -0.12419211 0.0018426664 0.0229097 -0.09310046 -0.112514354 0.18553975 -0.08680349 -0.12654829 -0.09873048
찍 -0.120972656 -0.054788433 0.21328168 0.01986682 -0.1133991 -0.055682827 -0.009130818 -0.09967253 0.014980879 -0.05143019 -0.060296908 0.02063913 -0.060973346 -0.04953881 -0.14082977 0.16707961
인가 -0.14033812 -0.15530488 -0.069464915 -0.1570486 0.03106692 0.049820084 0.009811492 -0.11858415 -0.015330754 -0.14743562 0.027500125 -0.08593646 -0.14319625 -0.14300978 -0.13968974 -0.037297472
노 -0.14372757 -0.14565463 0.20311281 0.0030511722 0.24215774 -0.07136811 0.22706494 0.23552936 -0.01366093 -0.14735596 -0.10716451 0.0034316026 -0.09326615 0.3206018 0.15845983 0.11418725
을까 -0.0072842017 -0.15453625 0.011427199 -0.088445306 -0.12253597 -0.087236404 -0.022102714 -0.029876322 -0.0085738525 -0.13130431 -0.092646055 -0.046933807 -0.11585226 -0.15785271 -0.011730371 -0.044520438
용 -0.09739638 -0.1544373 -0.058207948 -0.13960356 0.10730276 -0.07898794 0.050155967 -0.111797325 0.054909635 -0.13996547 0.08372076 -0.12390082 -0.14386256 -0.11254453 0.011998892 -0.07517373
코미디 -0.13732213 -0.16316943 -0.09869752 -0.094363086 0.06659476 0.04886531 -0.047304597 -0.11679464 0.0011042245 -0.13133372 -0.062161665 -0.083136365 -0.14914376 -0.15669586 -0.10626235 -0.03733114
마 -0.06825428 -0.109606706 0.08674757 -0.17331927 -0.083985694 -0.048888557 0.021471266 -0.028903916 -0.043846633 -0.028078916 -0.04683447 0.092268534 -0.094312005 -0.106764965 -0.11439595 0.061363142
화 -0.07738666 -0.13527402 0.036419887 -0.14147907 -0.025916206 -0.117902085 0.025970109 0.115444444 -0.03892119 -0.1018392 0.08118174 -0.060010433 -0.12025399 -0.10778062 0.08305796 -0.09507593
신 -0.11999238 -0.14248107 -0.16645089 -0.13132085 -0.11983927 -0.116809905 -0.04805168 -0.13702741 0.02223898 0.043772023 -0.1236391 -0.09041958 -0.13215353 0.049227845 -0.029431926 -0.12393357
모든 0.15386096 -0.113323465 -0.10581211 -0.16688064 -0.11662888 -0.105249316 -0.022259546 -0.07410153 -0.026221324 -0.051658645 -0.10435352 -0.11853408 0.066495754 -0.13727869 -0.15822262 -0.03975633
쓰 -0.11675622 0.038981415 0.014716279 -0.1821965 -0.0806573 0.09235336 -0.018915987 -0.116947085 0.001426436 -0.12861069 -0.050521165 0.0586937 -0.09895162 -0.1433829 -0.024673732 0.07949325
여 -0.14429787 -0.015129731 -0.061177462 -0.18199444 -0.07084005 -0.13523577 -0.042150963 -0.07743912 0.018989932 -0.14401852 -0.082579255 -0.007243186 -0.15879527 -0.13294582 -0.15038837 -0.13133039
5 0.10377732 -0.017904839 -0.12612891 -0.05875739 -0.15366808 -0.07569268 0.059601102 -0.094609104 -0.04917666 -0.05060694 0.0023641295 -0.096486844 0.043492667 -0.14103916 -0.041380648 0.01745363
아직 0.06116494 0.13410467 -0.11657144 -0.16306902 -0.1296462 -0.1078487 -0.015901083 -0.108276196 0.023635756 -0.085709624 -0.08572996 -0.121698216 -0.120455876 0.0843576 -0.13815874 -0.13241678
추천 -0.025698593 -0.06312735 -0.14383572 0.22072546 -0.14835711 -0.12433553 0.040113352 -0.14639324 0.0002704659 -0.06143333 -0.12504953 -0.13601555 -0.09637567 -0.08159458 -0.17361975 -0.128254
처럼 -0.10213302 -0.09618837 -0.06734366 0.03363768 -0.09372649 -0.091718346 0.050414957 -0.081551276 0.0014303203 -0.04097299 -0.14218333 -0.067256905 -0.12494564 -0.13379851 -0.0945453 -0.09936741
눈 0.057368778 -0.16013592 -0.069841765 -0.14573786 0.04493069 0.030355824 0.022439364 -0.010043647 -0.009836592 -0.14586613 -0.03920199 -0.043642826 -0.17080061 -0.013295882 0.0025555661 -0.07448572
아닌 -0.12279423 -0.14639837 -0.008743037 -0.15886196 0.12533458 0.0032106983 -0.010394264 0.019121768 -0.041415643 -0.12524587 0.033191927 -0.06186764 -0.14979997 -0.13552146 -0.034619413 -0.03758099
자체 -0.06470338 -0.13441123 -0.0643194 -0.16075593 -0.04752542 -0.09042767 0.028439512 0.0026287436 -0.047203686 -0.075799376 -0.13571577 -0.09920609 -0.12092231 -0.115113735 -0.078633286 -0.11046836
울 -0.1290826 0.054493126 -0.118247844 0.20697418 -0.12614267 0.010321816 -0.034107998 -0.027761208 0.01611868 -0.114860006 -0.050053168 -0.08461198 -0.0603458 0.18715441 -0.15433992 -0.10015157
몰입 0.14260976 -0.15932974 -0.11193147 -0.017147157 -0.11428067 -0.09968804 0.014922647 -0.13128656 -0.010823797 -0.13427971 -0.097649306 -0.11983012 -0.07659692 0.08856368 -0.14310749 -0.10592878
4 -0.099111736 -0.16404971 -0.11550822 -0.17990813 -0.13142729 -0.08613421 -0.042985953 -0.029239766 0.144951 -0.11683677 -0.038187616 0.06302212 -0.13817528 -0.029919585 -0.038209695 0.1451487
대박 0.20463185 -0.117705 -0.04732534 -0.15768485 -0.034330443 -0.03337932 0.08173135 -0.16548674 0.034253526 -0.02066241 0.03142019 -0.16264184 0.12872604 0.18737085 -0.0037535683 -0.03237659
몇 0.022332026 -0.04318426 -0.0953464 -0.04935281 -0.13961059 -0.086151354 0.02429951 -0.13198504 -0.009242404 0.055374913 -0.104442656 -0.11167449 -0.07135627 -0.093415335 -0.14246905 -0.005365547
스럽 -0.11351773 -0.135616 -0.0827079 -0.15691923 -0.13601424 -0.089197405 0.010177022 -0.13069604 0.00022268161 -0.114874944 -0.06754495 -0.08454264 -0.13202989 -0.12774286 -0.15994884 -0.112856776
실망 -0.13303196 -0.16312625 0.18536642 -0.17407909 -0.09557669 0.19975476 0.14110292 0.21172991 0.020161275 -0.14007086 0.011408834 -0.03661077 -0.15420294 -0.14154914 0.040867403 0.043400276
는다 -0.07312117 -0.1406028 -0.11900393 -0.09490933 -0.08704159 -0.09071454 0.013324393 -0.12146238 -0.03238808 -0.059184715 0.0169112 -0.12469198 -0.13328573 -0.099115446 -0.14374268 -0.11718381
대한 -0.11505486 0.039895877 -0.12585779 0.11560644 -0.09778553 -0.08029961 -0.012941945 -0.11477029 -0.048141148 0.007007358 -0.107971035 -0.116810806 -0.13766351 0.026606312 -0.11098268 -0.09176346
죠 0.10869139 -0.15630348 -0.14151762 0.049149975 -0.04744059 -0.11629524 0.03375793 -0.14759526 -0.009293042 0.09617178 -0.038714845 -0.03747746 -0.14731094 -0.14091738 -0.17507344 0.013281996
란 0.060388755 -0.13235329 -0.10878365 0.04647529 -0.092842974 -0.049862366 0.016300118 -0.13807403 0.008955348 -0.12899955 -0.07044895 -0.07998409 -0.13086885 0.007253045 -0.13836478 -0.08736268
그런 -0.14191784 -0.14828074 -0.05886489 -0.107348666 -0.04028883 0.014394017 -0.025856424 -0.06068317 -0.0038854256 -0.12549184 0.014716537 0.025457783 -0.14987867 -0.15123144 -0.11142854 -0.09118143
솔직히 -0.105715215 -0.16786532 0.13168879 -0.16820925 0.04787911 -0.07453414 0.039816543 0.06741595 -0.025310243 -0.14153549 0.114575066 -0.09344744 -0.18038617 -0.13938257 -0.080800384 -0.107862025
캐릭터 -0.07460073 -0.15321751 -0.08304077 -0.0866015 -0.15202542 -0.05160166 -0.04033854 -0.04967123 -0.035830535 -0.09495367 -0.13438578 -0.112302855 -0.1329543 -0.094730735 -0.0691257 -0.0463489
ㅎ -0.16017662 -0.17794722 -0.043935306 0.2529967 -0.055322744 -0.009273325 -0.00964113 -0.10498309 -0.0023144558 0.010263201 -0.070409365 -0.15053126 -0.17994848 -0.1998952 -0.089249775 -0.120697625
모두 0.16077885 -0.14265229 -0.11811883 -0.1452158 -0.095766746 -0.097104505 0.032456804 -0.1106019 -0.021477878 -0.1163829 -0.10821161 -0.13397719 0.084637806 -0.12971213 -0.09788964 -0.10669365
아주 0.051110495 -0.12808757 0.051475883 -0.09527387 -0.15512417 -0.1318293 0.04209022 -0.16225104 0.054186713 0.024478134 -0.13537066 -0.15571885 0.028470432 -0.06366302 -0.17188679 -0.1437777
- -0.1038124 -0.06537023 -0.15761203 -0.104326256 -0.04576378 -0.11943224 -0.011138044 -0.0068179816 -0.030457033 -0.02101893 -0.090884514 -0.041911352 -0.033598043 -0.069393955 0.009034094 -0.12823491
가족 -0.11378972 0.0075412043 -0.13795076 -0.13576934 -0.057098176 -0.10477639 -0.010326801 -0.15818097 -0.037956726 0.113526344 -0.11735944 -0.12605897 0.024197243 -0.13416277 -0.16094224 -0.1092349
여운 0.09225193 0.31235173 -0.11312734 0.23070619 -0.124145016 -0.10396056 -0.03577106 -0.13347751 -0.03140358 -0.06533863 -0.13507277 -0.10363199 0.113360725 0.043412127 -0.15100989 -0.0937548
건지 -0.14247572 -0.1321899 -0.025065418 -0.16932914 -0.04410185 0.04762261 -0.0062140883 -0.04804017 -0.0054394603 -0.109402634 0.16016902 0.005547466 -0.12305321 0.059682403 -0.025166266 0.20137043
전혀 0.045163892 -0.0021612777 -0.040810097 0.034303263 0.08064114 0.14204219 -0.020312168 -0.04223389 0.021426562 -0.13201931 0.062689796 -0.05116487 -0.060836907 0.057783224 0.1622592 -0.033986486
연기력 -0.12069845 -0.086851716 -0.04735339 -0.13650613 -0.1254438 -0.09191542 0.0441735 -0.08849987 0.0017616153 -0.075798236 -0.050149 -0.12886149 -0.15590629 -0.08741676 -0.053290844 -0.035944827
나라 -0.019662015 -0.061318517 -0.08142061 -0.11136721 -0.06301143 -0.13747668 -0.014492799 0.05100803 0.004433144 0.08705725 -0.033413205 -0.122623995 -0.055514053 -0.07537649 0.012928488 0.02617856
후 -0.09917372 -0.088939495 -0.03596132 -0.114757515 -0.104119636 -0.14420372 0.04206108 0.028483773 0.027746998 -0.08865384 0.033583585 -0.14334114 -0.090683684 -0.08294292 -0.12782395 -0.04500886
될 -0.008741528 -0.14740346 0.05427317 -0.085240364 -0.090839915 -0.03970908 0.01317727 -0.10234559 0.015432245 -0.12079442 -0.07765953 -0.06584247 -0.06906328 -0.12387161 -0.097271785 -0.1251092
다면 -0.09182418 -0.10093215 -0.04974745 -0.13225056 -0.00835323 -0.04963452 -0.02533027 -0.11605972 -0.012781907 -0.07033516 -0.084751695 -0.04747344 -0.12607974 -0.04432976 0.027309796 -0.10722415
뭔가 -0.15504877 -0.034218248 -0.14359716 -0.034843024 -0.14517018 -0.10119998 0.020264026 -0.116262615 0.01400267 -0.061978254 -0.104579985 -0.03978958 -0.16792747 -0.182487 -0.120953724 -0.11720515
그래도 -0.116670325 0.0099452315 0.03707884 0.10559942 -0.030128574 -0.035436697 -0.032561146 -0.06892707 -0.016993534 0.008683536 0.030862052 0.040698364 0.0713312 -0.10502715 0.036533702 -0.10656738
; -0.066084936 -0.09278217 -0.15528035 -0.088046014 -0.1691766 -0.029995864 0.011778431 0.12471376 -0.028170025 -0.042406466 0.09176199 -0.16250151 -0.041154094 0.033434752 -0.18599191 0.09051419
시리즈 -0.08954654 -0.14409345 -0.11048519 -0.039693687 -0.10537659 -0.06596923 0.073438704 -0.07321744 -0.04151423 -0.116102524 -0.06494816 -0.076189585 0.12679388 -0.12835029 -0.08060756 -0.056434225
근데 -0.11162582 0.1332311 -0.054235972 0.12378235 0.02390633 -0.070248015 -0.046765234 -0.1144624 0.001248993 0.01948166 -0.0837421 -0.08965785 -0.09914475 -0.11987553 -0.11058899 -0.05654453
작 -0.13822757 -0.15831088 -0.15307638 -0.14899586 -0.0856146 0.032280352 0.06603179 -0.037920702 0.068177894 -0.13262747 -0.098352276 0.036280464 -0.14132817 -0.12809913 -0.16537076 -0.099141374
표현 -0.11426319 0.21036421 -0.10486901 0.042614117 -0.10320438 -0.093863584 -0.023164367 -0.12121455 -0.042214166 -0.0063948366 -0.08790283 -0.094716504 0.027376594 -0.14669983 -0.10769802 -0.04522217
모습 -0.09345481 -0.08206014 -0.0492749 -0.03506297 -0.018476661 0.02383785 0.012141418 0.02526944 -0.03153342 -0.09440645 -0.067237966 -0.10689933 -0.14739408 0.22577213 -0.10383681 0.009315075
공감 -0.078476325 -0.11145254 -0.14305854 0.027146729 -0.14707638 -0.13454245 0.015990559 -0.12452105 0.021837208 -0.053032443 -0.12658247 -0.12458326 -0.09140478 -0.053613573 -0.16789402 -0.13439478
계속 -0.1016114 -0.100145034 -0.09309608 0.05810819 -0.13137978 -0.10227186 -0.021232637 -0.115522794 -0.0116112605 0.08015655 -0.08564425 -0.09323191 0.08527664 -0.15360062 -0.1245483 -0.10604848
먹 -0.11703832 -0.1431379 -0.14533682 -0.13925278 -0.06842602 -0.08765427 -0.0015695798 -0.12205627 -0.0060322173 -0.13210723 -0.07677206 -0.06543783 -0.119989105 -0.1255856 0.018085362 -0.019149117
"" -0.08904841 -0.09509205 -0.11111106 -0.06753393 -0.08181411 -0.100557104 0.048008136 0.0030668962 -0.0005952342 -0.076449275 0.07010176 -0.054053355 -0.040719286 -0.06370523 -0.100994915 -0.108044416
제목 -0.067189276 -0.14463837 -0.06251263 0.03653978 0.07148577 0.013333098 -0.04336783 0.005741024 -0.0030075908 -0.1339529 0.008792332 -0.00478076 -0.15313262 -0.15871187 -0.07025284 -0.11876974
7 -0.040024288 -0.16495073 -0.04381893 0.1500714 -0.13771525 -0.06304614 0.0058824373 -0.0763022 -0.03890878 0.1283337 -0.15079826 -0.02958053 -0.13360706 -0.017950706 0.043972846 -0.08528657
이랑 -0.076754555 -0.052980915 -0.012590355 -0.10265794 -0.10674113 -0.120386906 0.04416832 -0.107913956 -0.04377384 -0.08958335 -0.09477976 -0.085799165 -0.11347965 -0.10891655 -0.14888066 0.08050382
극장 -0.06910675 -0.14389949 -0.09764135 -0.13420168 0.035739657 -0.0045405785 0.030614045 -0.013232814 0.030192802 -0.12562653 -0.059265263 0.06429135 0.015319068 -0.14906779 -0.059038494 -0.0003709165
치 -0.09343943 -0.13655253 0.067584574 -0.13534088 -0.093936756 0.011347527 0.057334185 -0.086069874 -0.015467741 -0.13131559 0.06066558 0.094019055 -0.12857834 -0.119512446 -0.029068403 -0.054638337
비 -0.06688234 -0.068611 -0.04902233 -0.08881022 -0.09187277 -0.13353069 0.039632943 -0.13624856 -0.030233873 -0.06784788 -0.05378602 0.17122236 -0.07758903 -0.07955542 -0.107663766 0.061762396
이걸 -0.11749466 -0.1490439 -0.031651907 -0.16475046 0.15257767 -0.1216855 0.109190956 0.1305044 -0.031107819 -0.12149129 -0.10288999 -0.015059172 -0.13717842 -0.1474838 -0.13665056 -0.04227928
진 0.035087436 -0.03585218 -0.06299492 -0.19564193 -0.06297265 0.081041865 -0.025072288 -0.055265695 -0.039552473 0.07842779 -0.08448324 0.101949275 -0.0036731013 0.09401876 -0.10034479 -0.10430598
바 -0.050130498 -0.045631837 -0.095436506 -0.15215036 0.16222979 0.14788437 -0.0018375292 -0.105894335 0.018654931 -0.12001196 -0.049464855 0.04172526 -0.13758689 -0.1256416 -0.090037785 0.047656164
대사 -0.09636547 -0.12051244 -0.085097685 -0.09523087 -0.12161762 -0.09259707 0.031701956 -0.097590216 -0.03309989 -0.13207588 -0.008492129 -0.09502965 -0.10791366 -0.1195954 -0.124038994 -0.108327515
부분 -0.11370795 -0.14166656 0.012358774 -0.14124125 0.052612048 -0.100194074 -0.0031740554 -0.104452625 -0.04960065 -0.1445318 -0.00615376 0.053742412 -0.14443016 -0.1156752 -0.13764247 -0.07757722
그렇 -0.14923856 -0.16439366 -0.11878832 -0.14897892 0.034809403 -0.05197979 0.015808228 0.13944721 0.1087448 -0.10640823 -0.120217405 -0.06965944 -0.031678848 -0.142262 0.09091787 0.10396861
개봉 -0.12211392 0.02461945 -0.0133193 -0.14325237 0.016001357 -0.0003469133 -0.03290385 -0.05065044 0.020913687 -0.08734921 -0.07112695 0.009445873 -0.13842806 -0.052797586 -0.08673396 0.11926203
0 -0.11801782 -0.16183057 -0.08709415 -0.17781278 -0.040559765 -0.072013445 -0.042290427 0.01599034 -0.041301917 -0.12534645 -0.09595961 0.18191825 -0.13998187 -0.1379014 0.1700708 -0.12188348
OO -0.15220058 -0.17527758 -0.08975224 -0.17764091 0.058399018 -0.1076448 0.07517712 0.09967111 -0.0012353659 -0.0873969 -0.0059129386 0.00034747584 -0.16718411 -0.16124445 0.04838316 -0.10748392
대단 -0.059495613 0.05714915 -0.15382074 -0.1812018 -0.06336869 -0.1279139 0.009663789 -0.11200607 -0.019401014 0.13439944 -0.06903739 0.06504567 -0.14353397 0.09302843 -0.1747067 -0.11054873
어디 0.0731739 -0.13778643 0.020040195 -0.0051270123 -0.15314776 -0.09697441 -0.017156605 -0.095228545 -0.016626738 -0.03610945 -0.054976325 0.0025273454 -0.09276509 -0.09467221 -0.1249789 0.15356201
작가 -0.121551745 -0.16455954 -0.109590895 -0.11620391 -0.04938345 0.25345394 -0.005568467 0.010500029 0.022817824 -0.11951816 0.002667418 -0.10480719 -0.14596924 -0.09482474 -0.076439954 -0.031714786
된다 -0.08647299 -0.18192543 -0.0649212 -0.14332782 -0.019871049 -0.07868376 0.048400264 -0.02635744 -0.041124664 -0.12090306 -0.08589862 -0.073977716 -0.13155194 -0.11773759 -0.13600896 -0.08328354
아쉽 -0.15027289 0.16519323 -0.0874921 0.044643093 0.02268652 -0.03308407 0.027557412 -0.07701663 -0.012251984 -0.14825943 0.009714062 -0.09807774 -0.17503166 -0.17520215 0.020501457 0.018637985
기분 -0.09375378 -0.15794182 -0.13840054 -0.12897347 0.0013769709 0.055931706 0.03603227 -0.033375014 0.09339957 -0.055552144 -0.04006436 -0.061764494 -0.042008284 -0.09792836 -0.15650475 -0.1304625
제 -0.025613064 -0.07436795 -0.11435584 -0.11119412 -0.14422475 -0.104318455 0.012288792 -0.0110101905 -0.035921942 -0.08413826 -0.15244578 -0.13341588 -0.13237086 -0.0942891 -0.10831465 -0.08721526
진심 -0.119145386 -0.13843602 -0.06401894 -0.13786782 -0.102103144 -0.11087568 0.020267779 -0.13766187 -0.026776588 -0.13313352 -0.05445753 -0.15836968 -0.13978088 -0.13173272 -0.16241094 0.085975684
타임 -0.08768889 -0.086637504 -0.045761857 -0.12656362 0.0033138366 -0.025443947 -0.035976328 -0.11374384 -0.01726358 -0.09861465 -0.053419832 -0.07338808 -0.036262244 -0.12634194 -0.08982684 -0.0645084
/ -0.15669852 -0.21107247 -0.065075316 -0.06220082 -0.062568106 -0.09490595 0.042556837 0.051130332 -0.0106853135 -0.14379016 -0.08366795 -0.02114802 0.11860599 -0.15213282 0.0641739 -0.024256969
웃기 0.013065849 -0.027003976 -0.10303566 -0.14905345 -0.09584582 -0.09884307 -0.044275966 -0.068104774 -0.049718536 0.06516909 -0.12679963 -0.15807545 -0.15498364 -0.041595742 -0.12235344 -0.10304376
보이 -0.11238727 -0.13579781 0.029435799 -0.024426099 -0.05169818 -0.062625445 -0.008230388 0.14610101 -0.015923858 -0.042261746 -0.093594044 -0.09463996 0.044743042 -0.10905095 -0.13181454 -0.09430514
놓 -0.10341296 -0.09963729 0.0038563742 -0.12402455 -0.07879553 0.073936075 -0.007731568 -0.0848635 0.018815722 -0.117335476 -0.07837938 -0.0153099 -0.04749189 -0.103051424 -0.106200784 -0.07962724
해도 -0.016930997 -0.06569206 0.07637741 -0.13113537 0.02550091 -0.027637554 -0.03652843 -0.09376956 0.00016106124 -0.107524 -0.0469969 0.1219383 0.08559016 -0.065643765 -0.1434437 -0.115471214
이제 -0.0042549283 -0.17591815 -0.016409613 -0.15576175 -0.032234486 -0.13784768 -0.003576955 0.12391512 -0.014767539 -0.0053765955 0.07251427 -0.036783073 0.0660708 -0.013430631 0.036354456 -0.10608311
물 -0.1164398 -0.13972774 -0.0940831 -0.156378 -0.022822574 -0.12005729 -0.04483212 -0.04130468 0.07813482 -0.119618095 -0.0678343 0.07905509 -0.15700842 -0.14261681 -0.09484674 0.11361179
봐야 -0.09547773 0.030344736 -0.1396739 0.21589161 -0.13730602 0.057653017 -0.04449593 -0.059672058 1.4758222e-06 -0.0120429555 -0.053725835 -0.12627436 -0.11281939 0.02644972 -0.067640096 -0.118889295
막장 0.062948965 -0.022681134 -0.046035457 -0.041430432 0.20246856 0.18838225 0.014992051 0.093266055 -0.03981086 0.025628978 0.067981 0.09883715 -0.08688475 0.10144081 -0.15409444 -0.039445195
삶 0.1851724 -0.045732893 -0.11920414 -0.013121693 -0.13448095 -0.11350976 0.036350414 -0.11965582 0.016896252 0.04766576 -0.08375203 -0.12568521 -0.11029485 0.24431889 0.063248664 -0.025593063
친구 -0.013932663 -0.035166793 -0.109364316 -0.08426214 -0.14287478 -0.10753659 -0.033517648 -0.11456681 -0.015781164 -0.07079947 -0.12891746 -0.1316459 0.03385021 -0.07174319 -0.11743643 -0.10197264
잔잔 -0.032462634 0.2622306 -0.14523537 -0.09468559 -0.17544201 -0.045566045 0.02755397 -0.046720613 -0.006008994 -0.14433597 -0.10914924 -0.111950904 -0.17626952 0.022574991 -0.03117759 -0.0051817135
조금 -0.060055953 0.0809216 -0.09468118 -0.14149953 0.089777425 0.07567798 -0.0077612693 -0.0031961226 0.03307251 0.1975996 -0.08187989 0.020291915 -0.14379938 -0.113382764 0.07537746 -0.022178698
씬 0.029342094 -0.011021477 -0.024494587 -0.022134317 -0.09871446 -0.11135496 -0.03917416 -0.078410044 0.016230078 -0.024247462 -0.059786215 -0.07023376 -0.11643062 -0.07592955 0.012340222 -0.07778347
딱 -0.12601218 -0.0045339186 -0.13304523 -0.18095 -0.13837205 -0.124904655 0.047147147 0.101802036 -0.04147284 -0.03663067 -0.10102461 -0.101768896 0.04690649 0.022548253 -0.1516269 0.22687231
영상 -0.1080907 -0.08576931 0.022203144 -0.12581344 -0.031293724 -0.13787581 -0.024018288 -0.03769657 -0.028547967 -0.038871113 -0.13085273 -0.1418787 -0.0850692 -0.040728405 -0.043516718 -0.00049386494
억지 -0.118291475 -0.13232319 -0.016124621 -0.1621098 0.21360274 -0.050283406 -0.016099624 -0.0051423497 -0.009711135 -0.10215286 0.08279941 0.08279231 -0.15536018 -0.1458941 0.16445892 0.016301662
찾 -0.12233665 0.03422764 -0.028969266 0.012326005 -0.12087547 -0.027444156 0.03400669 -0.037547365 -0.0497888 0.014401957 0.026451515 -0.091745846 -0.11909338 -0.05563843 -0.13543859 -0.0607097
요즘 -0.11479073 0.035638135 -0.019379832 0.09607404 -0.018794684 -0.10351374 0.025403168 -0.09981883 -0.0044920845 0.2049188 -0.022385545 -0.0126407165 -0.13445862 -0.048588157 -0.0025456122 -0.04330007
같이 -0.1276782 -0.09228582 0.0008146513 -0.14710304 -0.037018392 -0.078087844 0.011124054 -0.12444883 -0.037418794 -0.10400218 -0.0796149 -0.08669618 -0.039879862 -0.14666991 -0.049155038 0.031293184
중간 -0.09101309 -0.14344586 0.0028459434 -0.14862578 0.052421127 -0.010134287 0.054142248 -0.041903052 0.01280636 -0.11014175 -0.07035815 -0.09052983 -0.1172303 -0.14094609 0.095192015 -0.07980462
" -0.09960665 -0.08039822 -0.1160741 -0.063696206 -0.03499605 -0.08913949 -0.037346542 0.034493677 -0.045232285 -0.07398527 -0.06068305 0.08654307 -0.01875932 -0.083423324 -0.110623956 -0.11399121
구 -0.07892869 -0.115608074 -0.11798182 -0.13390857 -0.14192553 -0.08342317 0.01868924 -0.097411916 -0.012208462 -0.033800483 -0.07773018 -0.15896675 -0.027417047 -0.06475393 -0.12981275 -0.12654547
라도 -0.08977763 -0.114586055 -0.0716309 -0.13345261 0.025112377 -0.10472628 0.056608222 0.013268936 -0.004388274 -0.10294722 0.057361867 -0.11795868 -0.110858686 -0.109140515 -0.10275293 -0.111253366
스릴러 -0.12290284 -0.15012142 -0.13164274 -0.12297923 -0.047468025 -0.11924273 0.04008689 -0.15827084 -0.014254488 -0.13200651 -0.09750776 -0.08999858 -0.1433344 -0.1326175 -0.14587799 -0.12168566
가지 -0.09372119 -0.14639106 -0.07529164 -0.11691013 -0.10286349 -0.09902361 0.03509882 -0.10379452 -0.00061561534 -0.08414504 -0.1015106 -0.07806509 -0.123374514 -0.12457807 -0.12772469 -0.104703434
8 0.07399309 0.14700338 0.11083529 0.12192091 -0.11733543 -0.06856538 -0.0325037 -0.120476 0.023908846 -0.048358317 0.20072047 -0.119146906 -0.015978064 0.1663511 -0.1347884 -0.10702623
믿 0.054093003 -0.14666103 -0.11735049 -0.067677945 -0.12397128 -0.13701202 0.017917145 -0.11646527 0.024533974 -0.10770051 -0.1145135 -0.14062425 0.06721408 0.053507145 -0.13718909 -0.105867244
싫 -0.15182373 -0.10175819 0.022007745 -0.17272522 0.10023077 -0.013390265 0.03728666 0.140678 -0.025377298 0.005781951 0.1331883 0.05131048 -0.16563503 -0.044489413 -0.0024720815 -0.00979771
.... -0.1483944 -0.11931285 -0.024837827 -0.18110508 0.035139065 0.08242485 0.018573567 -0.10988906 0.06015749 -0.08671788 -0.13933066 0.07776088 -0.104898155 -0.14157729 -0.15976693 -0.0952359
나왔 -0.115004025 -0.13233346 -0.121274576 -0.13862719 -0.014472644 -0.010933903 -0.020113993 -0.13390367 -0.00014931294 -0.13102034 -0.014358134 0.013557859 -0.07646593 -0.12686482 -0.16010194 -0.11027448
아까운 -0.13772652 -0.16778816 -0.033357523 -0.17525516 -0.09655855 0.22147827 -0.027690424 0.12389408 0.026633967 -0.13342546 -0.09374563 -0.057100154 -0.1512994 -0.14172596 -0.118169844 0.11355961
긴장감 0.056813784 -0.14991696 -0.11548116 -0.1832824 -0.11673059 -0.061085843 0.037858825 -0.07581044 -0.02569517 -0.12926282 -0.10399554 -0.10673385 -0.13816264 -0.048680034 -0.15931244 -0.10677476
점수 -0.11423513 -0.0880806 -0.043000285 -0.03787073 0.06435433 0.08534316 0.02057034 -0.0030430772 -0.037144043 -0.08569991 -0.030758927 0.01136614 -0.1433727 -0.07272939 0.030616783 0.06957961
개인 0.036133446 -0.027205715 -0.12406779 -0.12677835 -0.07281866 -0.12079487 -0.04242543 -0.09265305 0.055123772 -0.135698 -0.101249754 -0.13412865 0.012133507 -0.1426422 -0.1286528 -0.1045386
제대로 -0.13057087 -0.15717252 -0.065375306 0.032850046 -0.096441865 -0.100980505 -0.015169553 -0.12799273 0.035526823 -0.12815058 -0.06389471 -0.082708344 0.05003703 -0.13633458 -0.13750413 -0.1168915
부족 0.023836145 -0.14215617 0.060854778 -0.15476014 0.030460209 0.0891326 -0.033320226 -0.14722632 0.065572865 -0.13551094 0.0149008045 0.0031283072 -0.15848982 -0.1476871 -0.0012780768 0.21066503
이유 -0.039187826 -0.13513674 -0.12482039 -0.166283 0.023940483 -0.06128161 -0.028760051 0.05886244 -0.00023191479 -0.05856972 0.0530715 -0.11586904 -0.07823151 -0.045194313 -0.1406628 -0.06334462
노래 -0.09548815 -0.07046757 -0.043080505 -0.055261374 -0.056390986 0.0029824378 -0.005515825 -0.023809645 0.02099069 0.07810536 -0.0025372696 -0.06962216 -0.11635613 -0.08095431 -0.024511142 -0.04080811
만큼 0.016980078 -0.09477212 -0.08643782 -0.089818545 -0.055412937 -0.058418807 0.026604768 -0.07568233 0.025126537 -0.09745681 -0.09145898 -0.09094605 -0.011433163 -0.062189616 -0.1337186 -0.09909106
라면 -0.06734218 -0.1417143 -0.11151687 -0.0075507415 -0.099094145 -0.11117205 -0.0011471675 -0.039971493 0.0030984858 -0.043915145 -0.096531555 -0.111138776 -0.119130306 -0.13931106 -0.070786156 -0.11331685
시작 -0.08544297 -0.10238637 -0.16017543 -0.021726977 -0.1410112 -0.12711856 0.055586364 -0.10464042 0.027373783 -0.07476232 -0.15159488 -0.16330883 -0.09384496 -0.054764833 -0.17073594 -0.107580625
구나 -0.1014363 -0.13637562 0.096189275 -0.08250025 0.013410788 0.022556057 0.050463796 0.015562077 0.021301042 -0.021462059 -0.009893145 -0.009493369 -0.14034794 -0.122789234 -0.11035342 -0.06498995
잇 0.107914664 -0.009221913 -0.14387362 0.054600745 -0.10071694 -0.086387835 -0.039355706 -0.06143607 0.023721874 -0.005287735 -0.13868238 -0.055696346 -0.015686128 0.046682138 -0.12162165 -0.099028416
특히 0.033120852 -0.08928307 -0.11554439 -0.035187967 -0.122754484 -0.117073834 -0.0012921207 -0.096167386 0.013984386 0.14402783 -0.11100361 -0.09360912 -0.06253054 -0.032504015 -0.13439627 -0.09292896
한테 -0.10641065 -0.09663752 -0.12144249 -0.13413396 0.09736905 -0.08860726 -0.047904946 -0.07312812 -0.013608623 -0.09789834 -0.08612374 -0.07694221 0.04797417 -0.11932177 -0.11830366 -0.046982337
날 -0.1106373 -0.12394174 -0.11281029 -0.13530767 -0.09258238 -0.08586109 -0.00784874 -0.06675666 0.026007691 -0.010461267 -0.023447743 -0.05368253 -0.115541026 0.100529954 -0.0058137854 -0.03409601
려고 -0.09946232 -0.10733019 0.09962943 0.04374137 -0.011841187 -0.09466642 0.030156901 -0.09551474 0.020481471 -0.11401654 0.09491576 0.031396266 -0.08878805 0.010199626 -0.08816263 0.17029735
제일 0.09189854 -0.081545435 -0.12748712 -0.11692422 -0.16097549 -0.13637683 -0.0063425414 -0.1421412 0.027896196 -0.08304143 -0.039321292 -0.1308345 -0.033577982 -0.12947673 -0.14237265 -0.13401856
아름다운 0.058026027 0.26308006 -0.093490794 -0.0701737 -0.13844237 -0.12560543 0.054190643 -0.12863709 0.02166016 0.017743547 -0.09976866 -0.124304615 0.04099598 0.16692404 -0.1368444 -0.12819009
시대 0.065053724 0.0060450025 -0.122835904 -0.12533474 -0.14648306 -0.121528625 -0.019970883 -0.087793544 0.014825795 -0.12078637 -0.017245421 -0.13569276 -0.1321356 0.02746891 -0.12178829 -0.11247211
ㅜㅜ -0.042254336 -0.10585164 -0.13589802 -0.14280975 -0.118848726 -0.13070334 0.026879445 -0.154362 -0.02815485 -0.035214018 -0.061875463 -0.11837745 0.05599672 -0.11455323 -0.1574481 -0.10878403
어떻게 -0.09685818 0.068737864 -0.0033054152 -0.15792206 -0.032195985 -0.04154671 -0.008009385 0.059606835 -0.014911093 -0.12430245 -0.034766667 -0.012969297 0.12876517 0.04479686 -0.091373965 0.04099624
엔딩 0.083600104 -0.124627404 -0.06806212 -0.20178077 -0.030570213 -0.07806455 -0.026691675 -0.028787961 0.010121703 6.222708e-06 -0.021762118 -0.101947606 -0.16509415 -0.13887687 -0.045768965 -0.06334146
당시 0.15366545 -0.10624339 -0.12837407 -0.0007511158 0.0023721866 0.015622538 -0.0432547 -0.017089821 0.022165965 -0.114115715 0.0010605222 -0.13866907 -0.07386675 -0.118430294 -0.031014651 -0.094250046
하지만 0.114459015 0.0689626 0.066460535 0.014308043 0.08044455 -0.11095678 0.0006912567 -0.031609334 -0.036939405 -0.1243141 -0.11713035 -0.09364788 -0.029899847 -0.13972318 -0.13097581 -0.051281445
나름 -0.15533853 0.14376803 0.041274037 0.05131328 -0.0636571 -0.020685649 0.036575012 -0.06906211 0.025125494 0.0578387 -0.06983268 -0.0008536456 -0.041605853 -0.1203356 0.054200962 -0.10423471
봐 -0.09624682 -0.08046433 -0.12978178 -0.059351854 -0.16309606 -0.13118556 0.013173933 -0.10826242 -0.006774865 -0.059554815 -0.08864439 0.030223241 -0.015572939 0.02409498 -0.15942857 -0.117756955
무섭 -0.08117561 -0.19537489 -0.05749469 -0.20878276 -0.068737075 0.01918775 0.009130228 0.04968082 0.0042932406 0.08471843 -0.09173121 -0.118422896 -0.09212943 -0.0690474 -0.045301538 -0.092853546
나온 -0.10249327 -0.1466027 -0.109630704 -0.14465863 -0.05821448 -0.025760876 -0.010767429 -0.10244134 -0.030685747 -0.11864665 -0.1172783 -0.008853509 -0.13831729 -0.13770223 0.024905993 -0.046471808
명 -0.105730176 -0.1247267 -0.10179975 -0.08249543 -0.110764466 -0.060648784 -0.035255503 -0.10872078 0.104584366 0.01220306 0.025095234 -0.11195133 -0.027788939 -0.118208095 -0.11613381 -0.10185957
사 -0.028195089 0.06646362 -0.031572614 -0.04603125 -0.11353652 -0.109043136 0.0019485089 -0.08888595 0.016503874 0.113047406 -0.0037585641 -0.11969019 -0.047954585 -0.06084293 -0.11911225 0.019721389
니까 0.0934837 -0.073131986 -0.04182415 -0.1639406 -0.13736014 0.030178593 0.06794665 -0.04038476 -0.044487357 -0.03216021 0.058218647 -0.06455918 -0.13262896 0.061215498 -0.06650659 -0.008466866
오랜만 0.22719674 0.09170537 -0.14012498 -0.14836645 -0.12804887 -0.1059577 0.091372274 -0.12898263 -0.04221009 -0.14666553 -0.09704781 -0.1284611 -0.08043734 -0.099218786 -0.1496314 -0.11417632
이것 -0.11938347 -0.18328921 -0.14208701 -0.11153351 -0.12759408 -0.124870926 0.06506226 0.072329774 -0.04924984 -0.13201277 -0.09158581 -0.12468022 -0.13822931 -0.16220024 -0.148745 -0.13837299
해요 0.05995315 -0.11130284 -0.118499115 0.0329879 -0.14462508 -0.08229557 0.044988498 -0.1303949 -0.0158105 0.082248084 -0.10582712 -0.08592241 -0.13417953 -0.12510869 -0.1511281 -0.1045194
9 -0.057233665 0.03197612 -0.066368215 0.02270233 -0.075262465 -0.12791863 -0.010261118 -0.13682117 0.02766428 0.13674481 -0.011467997 -0.11576794 0.2079423 0.06479121 -0.15274945 -0.033669997
팬 -0.105750136 -0.06935723 -0.14011386 -0.046941705 -0.11547217 -0.0640139 0.053572416 -0.1538779 -0.047834422 -0.0049345586 -0.047759756 -0.13167068 -0.051580038 -0.057610057 -0.15897453 -0.13286467
차라리 -0.09131635 -0.12577938 -0.036573004 -0.12362329 0.2471268 0.1512859 0.0076957955 0.20557366 -0.017223667 -0.11510103 0.1759503 -0.042389415 -0.10807188 -0.11243134 0.10610934 0.05829594
절대 -0.032156568 0.0076373857 -0.12652043 -0.10506053 -0.026923044 0.17407238 -0.026167799 -0.049694166 -0.030508924 0.07775783 -0.110656746 -0.13399263 -0.00082790694 -0.07512421 -0.13193417 -0.044942092
세상 -0.12620384 0.13006537 -0.095152296 -0.0991363 -0.112706885 -0.05735444 -0.017397739 -0.034895703 -0.04714457 -0.13629968 -0.0650327 -0.082139485 -0.14731617 0.038239896 -0.064745784 -0.05407069
세 -0.10915839 -0.015607136 0.016054044 -0.047190953 -0.11479205 -0.096947506 0.017328758 -0.12515485 -0.040434398 -0.042964045 -0.0880103 -0.080041714 -0.10534323 -0.12859392 -0.11021246 0.035529446
못하 -0.059454903 -0.1241166 -0.12381826 -0.16212718 -0.11171279 -0.018742187 -0.049011897 -0.017854908 -0.038579084 -0.08878052 -0.0660278 -0.0017468015 -0.05082848 -0.048533488 0.09431577 0.19098334
의미 -0.1168878 -0.15923446 -0.119849995 -0.16743988 -0.11649546 0.034728147 -0.038867928 -0.12713322 -0.024414957 -0.12143395 0.008265835 -0.1219057 -0.15631951 -0.12799385 -0.15167908 -0.11026085
던데 0.16783267 -0.14072192 -0.09526748 -0.14824994 -0.15626395 -0.066877574 -0.0068663172 -0.14991695 -0.034490265 -0.14151755 -0.1218011 -0.1475857 -0.14612606 -0.10599388 -0.16090965 -0.122826494
봄 0.07675955 -0.14228924 -0.06752215 -0.15029052 -0.123466864 -0.007439425 -0.04130379 -0.029791774 -0.016700257 -0.067172155 -0.038521335 -0.12491683 -0.09813529 -0.102933794 -0.06520785 -0.08654137
욕 -0.12577659 0.035576046 0.08848992 -0.15513979 0.058271717 0.15357989 -0.007590294 0.15952928 0.19370829 0.02180103 -0.036655933 -0.100992166 -0.08559648 -0.072023764 0.028957445 0.018919555
훌륭 -0.04702471 0.09514685 -0.14933765 0.014286129 -0.12418012 -0.10114751 0.009868164 -0.13676435 -0.024181295 0.24533957 -0.12018402 -0.09978137 -0.0978048 0.1382601 -0.14705843 -0.1268042
너무나 -0.1544591 -0.14913094 -0.033183813 -0.13159081 -0.12889452 -0.11484519 0.044714108 -0.1056561 0.020429196 -0.12744984 -0.10190094 -0.09664496 -0.1416368 -0.15083128 -0.14119095 -0.13451803
강추 0.19506459 0.08711299 0.0034074802 -0.091568016 -0.04282728 -0.1339403 -0.030700661 -0.04642665 0.06015359 -0.082922965 -0.15460151 -0.021075416 -0.05584336 0.29683614 -0.16094013 0.09205769
감 -0.11779455 -0.1381925 -0.050509326 -0.13616878 -0.045035414 -0.07273185 0.034223042 -0.119377434 -0.0018543309 -0.12236051 0.00071513065 -0.07609671 -0.041733913 -0.12862885 -0.11427228 -0.06947606
됨 -0.10234452 -0.101965725 -0.09774648 -0.13804594 -0.1177755 -0.09668423 -0.025482643 -0.10162008 0.025951039 -0.10107244 -0.09586985 -0.15334572 0.011674182 -0.0026701002 -0.11946878 -0.1003855
ㅡ -0.12654135 -0.14260983 0.0147333285 -0.124703184 0.09087002 -0.08697249 0.068637736 -0.050551224 -0.0029276125 -0.13308127 -0.073638946 0.11528921 -0.15413305 -0.1265485 -0.052270286 -0.05902024
따뜻 0.3068318 0.08817759 0.039834987 0.14984836 0.01238576 -0.0134372115 -0.008917024 0.064444885 0.019073281 -0.14518167 -0.07937695 0.027620472 -0.13142905 -0.008388262 -0.012047268 -0.00081559323
빼 -0.03601432 -0.14122473 -0.082778566 -0.07308053 -0.101523034 -0.11334081 -0.02609489 0.09336632 0.02169199 -0.10911558 0.008415481 -0.08989995 -0.13133757 -0.12800898 0.17946164 -0.116779566
느끼 -0.13625081 0.008888833 -0.06308248 0.13562857 -0.060927037 -0.119685315 0.048448667 -0.11360614 0.01510499 -0.14273688 -0.08971462 -0.09205379 -0.15797989 0.02139715 -0.11650578 -0.058702517
해야 -0.0472776 -0.12687515 -0.068890706 -0.1420426 0.07190811 0.064519905 -0.04550481 -0.119170055 -0.042923786 0.026188938 -0.084751695 -0.09801968 0.07649386 -0.10156383 0.044711076 -0.0077064764
드 0.015951904 -0.11354214 -0.11341673 -0.15349402 -0.11202933 -0.03873884 0.056367815 -0.06599337 -0.0023244992 -0.13401616 0.057309415 -0.070477374 0.019665552 -0.051129784 -0.11480526 -0.057145312
도대체 -0.12005238 -0.14928643 0.09054267 -0.16275463 0.26905274 -0.04839938 -0.032808617 -0.09709773 -0.034856416 -0.077465646 0.04294471 -0.07729837 -0.122037955 -0.13133581 -0.1430457 -0.021797339
어야 0.020846875 -0.12857582 -0.02792413 -0.15755346 -0.009173724 0.14724334 0.016438495 -0.014445062 0.00076299906 -0.13187318 -0.09504097 -0.07587846 -0.116372 -0.14150552 0.040987145 -0.09007524
답답 -0.06708705 -0.15388864 -0.008546999 -0.17721482 0.09240709 0.11791422 0.0011652537 -0.00058901723 -0.04688238 -0.0798228 0.060316842 -0.033996265 -0.15352648 -0.109494664 0.22905804 0.019128792
마다 -0.03696071 0.09620428 -0.07022692 -0.015863907 -0.09822155 -0.108963355 0.031883847 -0.110007204 0.01066637 -0.08312243 -0.042338934 -0.11202275 0.01541631 0.013846766 -0.10696799 -0.10182022
준다 -0.103063166 -0.12161534 0.048985463 -0.15060553 -0.1359545 -0.087718405 0.017587038 -0.13053373 0.03303554 -0.07270112 0.052342445 -0.13715622 -0.10819155 -0.106359996 -0.12563838 -0.120522894
글 -0.1289612 -0.14693189 0.015549693 -0.16373177 -0.080590814 -0.09516462 0.01995438 -0.04098638 -0.016058527 -0.12710014 0.049123567 0.048733022 -0.13576588 -0.13425924 -0.09842098 0.13869514
전쟁 -0.11835793 -0.14994039 0.007904911 0.021754509 0.026871506 -0.022108076 0.020205578 -0.017610947 0.1178746 0.028513122 -0.102885835 -0.015833009 -0.17392096 0.17887975 -0.006672478 -0.026956413
놈 -0.08613987 -0.04573665 -0.06188135 0.12763982 0.029391162 -0.06467194 -0.03016591 0.1821942 -0.041523077 -0.04165362 -0.13437127 -0.08847267 0.12717588 -0.022566352 -0.08425042 -0.07161353
설정 -0.08710594 -0.13356522 -0.10701354 -0.13936557 -0.070509315 -0.03949384 0.1186025 -0.0063203294 -0.036955286 -0.003578395 0.091987 -0.054385055 -0.13332078 -0.1356646 0.13266172 0.27052668
무엇 0.03437704 -0.001598733 -0.07218568 -0.14326625 -0.10166142 -0.10109195 -0.027695095 -0.09840264 -0.02706709 -0.031935763 -0.09737035 -0.10320823 -0.13072582 -0.13791347 -0.08895137 -0.111269414
수작 0.036992732 0.32959795 -0.12951796 0.06106582 -0.0998272 0.03745835 -0.026520219 -0.14429447 0.029034127 0.29181695 -0.09163079 -0.094948046 0.052201524 0.020802248 -0.11369626 -0.114698105
만화 0.04270505 -0.15807712 0.020474264 -0.15235996 -0.14620095 0.02627179 0.009287088 -0.08370509 0.010658562 -0.14864956 0.040702395 -0.09098209 -0.06889893 -0.06222882 0.089689024 0.0060567195
흥미 -0.03225821 -0.1087283 -0.14288159 0.019694164 -0.080036186 -0.11456445 0.021177564 -0.14684738 0.07239291 -0.11056889 -0.060750518 -0.13207544 -0.12949803 -0.10353592 -0.13220531 -0.109500006
그저 -0.11385656 -0.15013541 0.10547092 -0.13681324 -0.03520786 -0.14261246 0.04184102 0.06694014 -0.048912276 -0.1256674 -0.01022988 -0.10889465 -0.15053368 -0.1619969 0.025641736 0.033437956
감정 -0.01419198 0.05952832 -0.04193691 -0.09389933 -0.08671417 -0.08836681 0.02350985 -0.08476543 -0.0038344744 0.054878496 -0.078721434 -0.104474984 -0.04310092 0.14163512 -0.12951091 -0.08729306
미국 -0.13508195 0.1650471 0.01944067 -0.025555832 -0.004613309 -0.023348004 -0.032620586 0.05979813 0.04027495 -0.15239877 0.071071185 0.05663942 0.1306616 -0.04942868 -0.030530931 -0.0097799245
신선 -0.039244913 -0.02579326 -0.11822601 -0.12188155 -0.15616497 -0.114471786 -0.04019294 -0.14372978 -0.043508817 -0.050133858 -0.08923025 -0.090470865 0.239619 0.012852239 -0.15505293 -0.14466894
행복 0.08420498 -0.08272774 0.07480237 0.27732512 -0.15305296 -0.10837172 0.07896612 -0.13671665 0.0010291561 0.016444238 -0.10494663 0.05118252 -0.14510803 0.049352713 -0.052739047 -0.04008949
뻔 -0.07478917 -0.13633187 0.082300805 -0.050665088 0.022897039 -0.05313531 -0.04745418 0.0931776 -0.03094554 -0.025367228 -0.06671174 0.11704945 -0.12913235 -0.10665587 -0.029400863 -0.024081865
형 -0.094281815 0.1485545 -0.13661905 -0.13586088 -0.15069072 -0.068292126 -0.045634042 -0.033342663 8.7511944e-05 -0.08535986 -0.15434656 -0.15356448 -0.114263624 -0.10332387 -0.04024484 0.079235554
앞 0.008550607 -0.056283306 -0.1229096 -0.057556927 -0.10670676 -0.10839505 0.013983263 -0.09951073 -0.009016443 -0.022917155 -0.08236683 -0.08892789 0.059123166 0.0064605162 -0.16227593 -0.11026732
허접 -0.11209156 -0.15009595 0.15605772 -0.15237385 0.13186343 0.010346804 0.13816859 0.16042477 -0.016384423 -0.11670011 0.020125458 -0.04428082 -0.13865612 -0.15379798 0.10620304 0.23697814
어도 -0.08709069 -0.1413257 -0.115922645 -0.12692252 0.016968533 -0.13211434 0.044385858 0.007422266 -0.015031468 -0.114032015 -0.11558325 -0.087819494 -0.12631927 -0.08494956 0.026525093 0.049309358
군 -0.081598274 0.0021714754 0.09591469 -0.029150615 0.082964346 -0.13771361 0.016254125 -0.15926257 -0.014828492 -0.03296043 -0.11498839 0.046797644 -0.11313943 0.12074318 0.049530096 0.08146268
시절 -0.036881153 -0.061263155 -0.08997165 -0.1412397 -0.122484855 -0.11612281 -0.02207303 -0.11453914 0.023461355 0.116323695 -0.09748591 -0.112338796 0.099368505 -0.03441666 -0.16660066 -0.09115089
관객 -0.09199592 -0.12968205 0.12854658 -0.086038135 -0.13225712 -0.08881989 0.059704438 0.22814208 0.0018902794 -0.09906711 0.10335052 -0.089072 -0.10762451 -0.122736126 0.064451344 -0.094255604
배경 0.06128378 0.0032772294 -0.074224226 -0.08919355 -0.120665744 -0.10204862 -0.008746646 -0.11696425 -0.0074941088 -0.0833286 0.060896147 -0.118051775 -0.11479549 0.020695344 -0.019791527 -0.036078017
6 -0.11303972 -0.059501737 0.07756753 0.0388051 -0.12566547 -0.009825742 -0.010116957 -0.12533173 0.01776636 0.040964216 0.094849326 -0.117767036 -0.115026735 0.13828467 -0.14057115 -0.060294785
초반 -0.0948 -0.14977248 0.028582538 -0.10610517 0.045462888 -0.025827626 0.025232298 -0.018206885 0.03711205 -0.033259932 0.17696203 0.006817726 -0.12433667 -0.1226245 -0.083799094 -0.08783192
사실 0.0419948 -0.08132187 -0.11389182 0.113784656 -0.08831001 -0.067891836 -0.0061635636 -0.07614796 0.01634058 -0.06319588 -0.08860358 -0.12212243 -0.12585743 0.12698673 -0.08960759 -0.12404535
웃음 -0.05908226 -0.037267137 -0.11922484 -0.10225179 -0.0939001 -0.07403792 0.0082157105 -0.10065967 0.0033214316 -0.10530975 -0.117373586 -0.088914275 -0.13766776 -0.12849185 -0.12775075 -0.08858781
답 -0.13836056 -0.1621322 -0.13923158 -0.17555282 -0.110252395 0.059775554 -0.042550553 -0.0997335 0.14188236 -0.13444428 -0.08723369 -0.087176904 -0.12543304 -0.14209957 -0.15936282 -0.09126302
엄청 -0.093717106 0.00029864837 -0.12882748 -0.15764214 -0.06698957 -0.021213578 -0.034972798 -0.03582095 -0.047565784 0.0017576597 -0.005570617 -0.040119085 0.010687658 -0.078957886 -0.10700375 -0.12024867
더라 0.04473104 -0.14569668 0.10751396 -0.11392023 -0.032506075 -0.13316931 0.031210165 -0.14108515 -0.0040438175 -0.1233548 -0.061134063 0.02314866 -0.12781209 -0.14310108 -0.08309787 -0.1089833
라니 -0.14719634 -0.15111862 -0.027704628 -0.14332405 -0.05887135 -0.034372024 0.0003405881 -0.12832612 0.019110117 -0.1335576 0.040168557 -0.008435103 -0.14203872 0.054482803 0.013518338 -0.10465363
질 -0.024517898 0.0054416675 0.032713335 -0.076752655 -0.037918564 -0.006802825 -0.040178347 0.13670391 0.022386823 -0.11590935 -0.08758585 -0.037081067 -0.12123462 -0.12173533 0.03154775 0.13872103
자신 -0.10311685 -0.11012026 -0.012985495 -0.09345003 -0.03669723 -0.11357178 0.02013888 -0.11864823 0.006925722 -0.08598011 -0.0731839 -0.050006676 -0.11636873 -0.11022545 -0.021501066 0.033619016
추억 -0.021892857 0.11325847 -0.13358255 0.01386219 -0.1449729 -0.13098194 0.03302357 -0.15968019 0.028951176 -0.04233502 -0.10309746 -0.13596946 -0.052516073 0.11030802 -0.16719866 -0.13943806
캐스팅 -0.14192054 -0.08325897 -0.08782202 -0.18730253 0.05317619 -0.07458235 -0.026576603 0.022524616 -0.0116231665 0.002377032 -0.1155454 -0.05650976 -0.12754661 -0.0065415343 0.1082155 0.12131766
첨 -0.0473373 -0.1363882 -0.026931353 -0.17803477 -0.057386655 0.015921531 0.025304098 0.055836637 0.023333175 -0.118948765 0.002090202 -0.08246632 -0.14894502 -0.13288394 -0.116475634 -0.013542551
멋있 -0.13457295 0.15981135 -0.027278673 0.18882726 -0.031174937 -0.0064058052 0.012196333 -0.0153151825 0.017950226 0.009599306 -0.030856505 0.0024573233 -0.12326854 0.091160476 -0.033027597 0.00083189626
류 0.055363256 -0.15838274 -0.11566172 -0.16989668 -0.0033312275 0.175442 -0.029276097 0.11768287 -0.03590014 0.018514978 -0.066440865 0.007294435 -0.1459625 -0.13666278 -0.15709569 -0.09166308
어색 -0.084107324 -0.11238311 0.14091036 -0.14238936 -0.07672831 0.036688883 -0.035625234 0.23488207 0.023363126 -0.09851808 -0.08862575 0.010542946 -0.1397838 -0.118147686 0.1847963 -0.011709694
시나리오 -0.08360915 -0.035881568 0.05478708 -0.14826876 0.14778075 0.115761794 -0.017306626 -0.11574916 0.008634031 -0.095211275 -0.10205502 -0.13703944 -0.1335509 -0.106561475 -0.08223007 0.014081068
머 -0.13935608 -0.1684357 -0.012249917 -0.1824952 -0.09280656 0.039445676 -0.01836535 0.1677429 0.0034243949 -0.13975926 -0.004628982 -0.0965693 -0.14287692 -0.13800155 -0.13590728 -0.07289929
밖에 0.13875705 -0.036618046 -0.10631365 -0.061714947 -0.07052157 -0.033592544 -0.025350844 -0.11384283 0.060740415 -0.12843116 -0.04995158 0.030554138 0.0039375 -0.0924034 -0.10740179 0.10573347
OOO -0.12027263 -0.15678646 -0.056200445 -0.19250137 -0.019235348 0.038353838 0.030766709 0.17446394 -0.04220904 -0.13279055 -0.034570914 0.10540396 -0.1618012 -0.15200868 0.08599898 0.057996735
슬프 0.26838592 0.22904317 0.08034291 -0.23813094 0.022569904 0.023050977 -0.020022577 -0.020497285 -0.024091328 0.031680353 0.018005552 0.018122153 -0.10415728 0.07899539 -0.016721578 0.020359432
정신 -0.12923986 -0.1461775 -0.13079467 -0.13901904 0.013270572 -0.11694666 -0.028961329 0.19357248 0.018325854 -0.13707499 0.04025207 0.012205426 -0.114596225 -0.13311826 0.05075871 -0.04500608
분위기 -0.05458789 -0.060883567 -0.1466868 -0.036529556 -0.15293944 -0.11699242 -0.033395305 -0.11001616 -0.024881626 0.058469925 -0.11562897 -0.13932298 -0.11848964 -0.017746381 -0.1482664 -0.10029647
소름 -0.09407802 0.0008662396 -0.10795203 -0.13759072 -0.13558406 -0.120350376 0.020111715 -0.13341416 0.026980339 0.24885911 -0.13645086 -0.09958004 0.12102978 -0.050523102 -0.1549265 -0.1242438
멋진 0.04940558 -0.13209765 -0.13640274 0.15280998 -0.14425042 -0.052750126 -0.024362195 -0.16473113 0.01597445 0.02763335 -0.113187045 -0.12823087 0.1268294 -0.07933604 -0.16557518 -0.14239483
힘들 -0.1296149 -0.1530115 0.047370233 -0.15187886 -0.011246955 -0.09248666 -0.042470194 0.1189082 0.018601898 -0.13029957 -0.06796784 -0.08164935 -0.09726808 -0.14999291 0.052483987 -0.0022174197
오늘 -0.096981555 -0.13239673 -0.04796461 0.035053898 -0.114841454 -0.10583322 -0.032242347 -0.09019634 -0.042355895 0.0645488 -0.08604291 -0.021389069 -0.038935132 -0.14023432 -0.12189638 -0.114024974
어이없 -0.1412295 -0.13866986 0.019803585 -0.17225592 0.12343844 0.051399693 -0.046929933 0.03122393 -0.03785207 -0.14551878 0.20469801 0.18397398 -0.1499645 -0.14229065 0.17630245 0.003151856
봐서 -0.12262545 -0.099352345 -0.0914896 -0.15202355 -0.12944707 -0.030002108 -0.021293689 -0.074949846 -0.007830961 0.018829573 0.0056409184 -0.0003909406 0.055716787 -0.093096904 -0.12118608 -0.12592505
잡 -0.12632939 -0.057395954 -0.12662259 -0.11815339 -0.1480631 0.021634482 0.043487895 -0.015368627 -0.04503529 -0.11256424 -0.097109854 -0.082310416 -0.089875266 -0.09353773 -0.16408768 -0.09055644
구성 -0.033812553 -0.1264735 -0.057903636 -0.15764044 -0.12793303 -0.07930168 0.00025446343 -0.10689185 -0.046832215 -0.110454634 -0.03475355 -0.06715973 -0.12952846 -0.13620384 -0.13870007 -0.08501836
엄마 0.04189723 0.15314682 -0.10744094 -0.13643056 -0.11214862 -0.078515984 0.038530048 -0.11124237 -0.017244924 -0.08952502 -0.09366961 -0.09011972 -0.08257364 -0.04140362 -0.13117939 -0.09835873
함께 0.21826562 -0.05609303 -0.020869486 -0.092212796 -0.07233857 -0.09101358 -0.048182882 -0.13313623 0.019060675 -0.08436709 -0.09768213 -0.016725203 -0.081276715 -0.07797912 -0.14711927 -0.12780818
문제 -0.0692701 -0.072076865 -0.06787267 -0.04923357 0.03922551 -0.074026115 -0.044650476 0.08133351 0.046771616 -0.04284177 -0.05705243 0.112495214 -0.086022206 0.032904584 0.05002127 0.011439613
위해 0.01332773 -0.031539425 -0.07812188 -0.16488771 -0.092858866 -0.06420662 -0.0063178763 -0.017650988 0.0021888607 -0.0077756546 -0.09829666 -0.042890172 -0.05836241 -0.03500024 -0.025631608 -0.10262865
졸작 -0.13956684 -0.15088938 0.16604328 -0.1789224 0.22019431 0.1299076 0.029343145 0.16426578 0.0826352 -0.10938858 0.19566885 0.15792827 -0.057189 -0.13813144 0.0058121784 0.086423375
잊 -0.09886379 -0.13747308 -0.117193915 -0.09322045 -0.11940752 -0.12187193 0.006191969 -0.10707365 0.031221285 0.22389214 -0.027051533 0.013263559 0.0051127193 0.19697593 0.03127546 -0.07221971
이딴 -0.14471903 -0.14411171 0.11202341 -0.15459329 0.21060239 -0.07554282 0.09911412 0.08491184 -0.04455998 -0.014983175 0.15019447 0.10529924 -0.0050018593 -0.12746331 0.2626098 0.095687926
등 -0.114814825 -0.031259615 -0.07393542 -0.048974305 -0.051876944 0.049244873 0.01682191 -0.048185993 -0.033064686 0.018005969 -0.10956309 0.0010085353 0.074681714 0.03307668 -0.030909166 -0.147098
집 -0.121541105 -0.13516326 -0.022678575 -0.13792662 0.010192801 -0.038460255 0.045142952 -0.04111762 -0.012883592 -0.08702968 0.037635017 -0.047369137 -0.11893557 0.021779776 0.013135962 0.002271459
유쾌 0.05263696 0.20772427 -0.13557339 0.1997661 -0.1280611 -0.12094632 0.037381057 -0.114424326 -0.0057580695 -0.042735342 -0.07210791 -0.10931668 0.075839974 0.15408307 -0.16322574 -0.1331578
뻔한 -0.13298139 -0.14724779 -0.039942056 -0.17796879 -0.013845561 0.14666566 -0.045933794 0.001612503 -0.010952294 -0.13217677 -0.0032287322 0.067154385 -0.14391054 -0.14744982 0.1255162 -0.03896611
킬링 -0.11069876 -0.112649225 0.0031180738 -0.13552225 -0.0005431481 -0.07688631 0.06426515 -0.11549539 0.019154076 -0.07361325 -0.049749795 -0.052271735 -0.07602627 -0.12482355 -0.07175516 -0.055261873
스러운 -0.08657777 0.067031264 -0.13317315 -0.1166727 -0.10123816 -0.12406564 0.032742772 -0.14416865 0.00744896 -0.0022700112 -0.11194549 -0.13960265 -0.08889667 -0.055764593 -0.13832778 -0.10268741
결국 -0.105685584 -0.118705034 -0.06908408 -0.14433983 -0.04533149 -0.081078306 0.0025773307 -0.122854546 -0.0020537141 -0.09995963 0.062078826 -0.1287774 -0.114304364 -0.10951915 0.046724312 -0.09438815
낫 0.051180407 -0.04999114 0.003501031 -0.11733466 -0.015387201 -0.1179679 0.055423517 0.050228953 -0.0013841875 0.055997122 0.13143873 0.07955727 -0.006428347 0.026898643 -0.060778745 0.08206453
한데 0.03015422 -0.13111001 -0.090840064 -0.06553157 -0.15585111 0.041594684 0.020151727 -0.14399506 -0.040115975 0.030176839 0.112973936 0.094547555 -0.016458955 -0.13850464 -0.15280767 -0.11576551
나요 0.09459552 -0.15621212 -0.11005936 0.106407575 -0.13313854 -0.10155717 0.02282256 -0.02701038 -0.019439781 0.036546268 -0.11356006 0.041725468 -0.09879167 -0.1466946 -0.14201672 -0.12484265
뭘 -0.10836635 -0.054049134 -0.048312597 -0.17180838 -0.088004425 0.13491763 0.048040103 0.0970169 -0.009978615 0.07171193 -0.029344762 -0.0048929676 -0.13677377 -0.001817371 -0.09786621 -0.11652915
소리 -0.10597506 -0.03855967 0.052736215 -0.14132604 -0.13948254 0.029544009 0.01864065 0.07353822 0.1845463 -0.07400649 -0.10490237 -0.0031600618 0.00019884847 -0.11162998 -0.09106602 -0.09865223
